// Auto-generated by export_policy.py -- do not edit by hand.
#pragma once

#define N_OBS 8
#define N_H1 64
#define N_H2 64
#define N_ACT 2

const float L0_W[64][8] = {
  {4.24476177e-01f, 1.10210292e-01f, -1.84161469e-01f, 2.90006157e-02f, 1.06618278e-01f, 1.03668027e-01f, -1.00656360e-01f, -1.00166731e-01f},
  {2.35300586e-01f, -4.89134640e-01f, -1.06708091e-02f, 4.16986570e-02f, -8.53731707e-02f, 3.20918038e-02f, 2.22828332e-03f, 1.11009680e-01f},
  {5.76736569e-01f, 2.32499450e-01f, -3.71731147e-02f, 9.09305830e-03f, 6.92051202e-02f, 6.00343086e-02f, -5.30845448e-02f, 2.37931967e-01f},
  {3.77938807e-01f, -1.91145360e-01f, -2.09871769e-01f, 1.78040028e-01f, 1.12968057e-01f, 3.86928134e-02f, 2.04495952e-01f, -2.69270390e-01f},
  {-2.00391442e-01f, -2.32665554e-01f, 3.27509820e-01f, 1.24699332e-01f, -3.50929052e-02f, 2.43441507e-01f, -2.38917366e-01f, -3.01961042e-02f},
  {-2.94100583e-01f, 2.56529361e-01f, 2.35296592e-01f, -1.95967723e-02f, 3.68166685e-01f, 9.37717780e-02f, -7.27199018e-02f, 8.19850713e-02f},
  {-3.69541019e-01f, -2.36902878e-01f, 5.70499338e-02f, -7.24103209e-03f, -4.12538052e-02f, -2.16177374e-01f, 6.14508688e-02f, 2.07793731e-02f},
  {2.73665875e-01f, -3.05005491e-01f, 1.41871274e-01f, -8.52069482e-02f, -3.98458615e-02f, 3.50044444e-02f, 2.41190955e-01f, 1.57464549e-01f},
  {1.13366403e-01f, -3.95742744e-01f, 1.69913918e-02f, -2.02298477e-01f, 1.16863020e-01f, 2.03686804e-01f, 1.23887137e-01f, 1.84752405e-01f},
  {-1.53014272e-01f, 6.39186919e-01f, 1.30131707e-01f, -8.58873576e-02f, 3.24757397e-02f, -1.49846375e-02f, 5.47124296e-02f, -2.43241563e-01f},
  {1.73955157e-01f, -3.36461753e-01f, -1.65204674e-01f, -8.92624855e-02f, -1.56134948e-01f, -2.36279234e-01f, -1.91474676e-01f, 2.17566490e-01f},
  {2.52764493e-01f, 2.51816779e-01f, -1.01322211e-01f, -8.20348188e-02f, 9.47696865e-02f, -1.90112561e-01f, -1.19444542e-02f, -5.06031029e-02f},
  {2.84277409e-01f, -4.26105440e-01f, 1.51914164e-01f, 9.03200172e-03f, -6.22036532e-02f, -1.56374270e-04f, -2.33641580e-01f, 3.20658267e-01f},
  {-3.99892896e-01f, -1.75724462e-01f, 4.61884499e-01f, -9.80939195e-02f, 2.12265272e-02f, -5.99747114e-02f, 1.23620994e-01f, -5.70182353e-02f},
  {-1.98147342e-01f, 4.80082005e-01f, 7.56211355e-02f, -2.55958885e-01f, 6.66951016e-02f, -2.01304808e-01f, -1.01727739e-01f, 4.63135481e-01f},
  {-2.21648440e-01f, 5.87430775e-01f, -2.18463451e-01f, -8.64378586e-02f, 8.64318982e-02f, -3.39790285e-02f, 3.83902878e-01f, -7.03831986e-02f},
  {-2.94355005e-01f, -5.82759917e-01f, -2.81946838e-01f, 7.83947930e-02f, -7.57232755e-02f, 4.54887003e-02f, 3.16029370e-01f, 4.04016972e-02f},
  {2.59749293e-01f, 3.70562047e-01f, 3.34171094e-02f, 1.01450622e-01f, 1.52816951e-01f, -1.89315937e-02f, -4.02097136e-01f, 2.34652281e-01f},
  {4.03798640e-01f, -2.36712202e-01f, 1.74712583e-01f, -2.53951341e-01f, 1.93278328e-01f, 2.01363072e-01f, 3.13711762e-02f, 1.77585065e-01f},
  {4.61688548e-01f, -3.12621981e-01f, 1.25579074e-01f, -1.99487936e-02f, -6.44503310e-02f, 1.19923629e-01f, -1.49973497e-01f, -2.93644726e-01f},
  {2.25669444e-01f, 3.33230197e-01f, -3.96164030e-01f, -1.02788597e-01f, -5.47765374e-01f, 4.97870594e-02f, -1.66304857e-01f, -4.18764681e-01f},
  {-3.77294540e-01f, -4.86007445e-02f, -1.49741784e-01f, 3.33314270e-01f, -3.56586784e-01f, -1.72487989e-01f, -1.46369576e-01f, 5.85704207e-01f},
  {-1.07017919e-01f, -1.58651888e-01f, -2.93707773e-02f, 2.61868462e-02f, 5.77508211e-01f, 6.92052096e-02f, 3.71232063e-01f, 2.12498620e-01f},
  {-2.77061224e-01f, -1.10648451e-02f, -1.44960642e-01f, -1.10205160e-02f, -2.45460317e-01f, 1.11373909e-01f, -1.80187210e-01f, -3.94664794e-01f},
  {-2.69084245e-01f, 2.08700866e-01f, 1.54321611e-01f, -3.77521515e-02f, 4.17056717e-02f, -8.00314397e-02f, 8.64486024e-02f, -5.00184774e-01f},
  {-4.89094585e-01f, -2.03232899e-01f, -4.42468412e-02f, 2.55850982e-02f, 2.68026683e-02f, -3.16538252e-02f, 4.12549675e-01f, 9.55894887e-02f},
  {-1.44681245e-01f, -2.60383878e-02f, -3.89020592e-01f, 4.11023721e-02f, -1.20024040e-01f, 5.86885929e-01f, -1.96693018e-01f, -1.23616226e-01f},
  {3.14700931e-01f, -1.64651722e-01f, -3.14664155e-01f, -3.02764803e-01f, 1.43741325e-01f, -4.69039902e-02f, 4.98863570e-02f, 1.21025480e-01f},
  {-1.03029825e-01f, -2.14738429e-01f, -1.29047319e-01f, -6.10225238e-02f, 2.11082056e-01f, -5.96047975e-02f, -1.32627964e-01f, -3.29252720e-01f},
  {-1.86544638e-02f, 5.38678408e-01f, -1.87915325e-01f, 1.14792064e-01f, -3.03819060e-01f, -4.39366363e-02f, -1.88395903e-01f, 3.13181765e-02f},
  {1.53769404e-01f, 1.42003447e-01f, 8.86125192e-02f, -9.33918357e-03f, 4.35012996e-01f, -3.27397317e-01f, -2.00864121e-01f, 7.49047101e-02f},
  {4.98919278e-01f, 3.06531221e-01f, -6.36789948e-02f, -1.00798294e-01f, -1.26103647e-02f, -1.76868904e-02f, -5.25595903e-01f, -1.36441309e-02f},
  {-7.34498575e-02f, 3.55837882e-01f, 1.09092347e-01f, 1.60790816e-01f, -1.78896323e-01f, -8.49415213e-02f, -1.74599409e-01f, 4.13532276e-03f},
  {-2.48314068e-01f, -4.58958715e-01f, -3.27389449e-01f, -3.96513306e-02f, 1.52218655e-01f, -1.50053456e-01f, 1.22989938e-01f, 3.57389152e-02f},
  {5.10874093e-01f, -4.26949382e-01f, -1.10914364e-01f, -1.63373258e-02f, -3.19978744e-02f, 1.05900513e-02f, 1.77384779e-01f, 2.61310548e-01f},
  {-3.65304381e-01f, 3.63605678e-01f, 3.89384836e-01f, -1.09090917e-01f, -1.04307570e-01f, 3.99102241e-01f, 7.56057724e-02f, 3.14526856e-01f},
  {1.76358163e-01f, 6.04431093e-01f, -2.88883671e-02f, -1.69369243e-02f, 7.68958554e-02f, 1.51024073e-01f, 2.07379326e-01f, 6.50250688e-02f},
  {5.62978126e-02f, 2.98572600e-01f, 2.50884831e-01f, 2.14181468e-01f, -1.65304109e-01f, -2.34860420e-01f, 3.52152646e-01f, -7.52339214e-02f},
  {3.09045434e-01f, -6.77585721e-01f, 1.79833397e-01f, 3.58861893e-01f, 1.18003711e-01f, -2.11176842e-01f, 1.62883788e-01f, -3.72230560e-02f},
  {1.24753222e-01f, 6.20139912e-02f, 3.49281840e-02f, 2.50122815e-01f, -2.65918583e-01f, -3.53278726e-01f, 2.62353480e-01f, 2.42860377e-01f},
  {3.82628292e-01f, 5.18144846e-01f, 2.11934581e-01f, -6.93280399e-02f, -9.34528001e-03f, 1.79011635e-02f, -2.27892146e-01f, -5.17921895e-02f},
  {-8.07615172e-04f, -2.83234298e-01f, 3.87185253e-02f, -1.95220381e-01f, 1.98127195e-01f, 1.41870320e-01f, -3.05776708e-02f, -3.79282124e-02f},
  {-1.69103503e-01f, 2.59262383e-01f, -1.06570974e-01f, -8.59966800e-02f, -2.28272289e-01f, 4.09600139e-01f, -1.20987512e-01f, -2.53863752e-01f},
  {2.66349167e-01f, -1.69411018e-01f, 2.43554771e-01f, -8.83964375e-02f, -1.02150187e-01f, -1.35071939e-02f, 3.01380455e-01f, 9.32108834e-02f},
  {-7.04623640e-01f, -7.89192840e-02f, 2.59928912e-01f, -7.83525333e-02f, -6.95838183e-02f, 1.36531647e-02f, -7.66854808e-02f, 1.76896945e-01f},
  {1.74973726e-01f, -1.94491908e-01f, 4.27946746e-01f, -2.00598001e-01f, -2.34384388e-01f, -3.91191244e-02f, 3.48679721e-02f, -1.99720114e-02f},
  {1.71552867e-01f, -3.58816355e-01f, -3.18201274e-01f, 4.15969901e-02f, 1.20130442e-01f, -1.70159027e-01f, -2.85697937e-01f, -1.64709330e-01f},
  {1.94614366e-01f, -3.78100306e-01f, -6.78616613e-02f, -3.65006854e-03f, -3.53958830e-03f, -1.08322069e-01f, 5.32874167e-02f, 2.80057579e-01f},
  {7.15598583e-01f, 7.18417987e-02f, 8.49166438e-02f, 2.76536345e-02f, 9.72028226e-02f, 4.79618013e-02f, 1.39779955e-01f, -1.99140683e-01f},
  {-1.72875881e-01f, 6.22289740e-02f, -1.41145602e-01f, -8.74401405e-02f, 2.28644356e-01f, -1.36670128e-01f, 5.41421212e-03f, -8.23668361e-01f},
  {-3.29745293e-01f, -1.72929674e-01f, 2.33370572e-01f, 1.05743026e-02f, -1.02032512e-01f, -2.34579504e-01f, 1.93115950e-01f, -3.66953015e-01f},
  {3.06392521e-01f, -4.02142972e-01f, 1.82455659e-01f, 4.71946113e-02f, -5.79690235e-03f, 2.59537939e-02f, 2.69062012e-01f, 1.68498322e-01f},
  {4.38144982e-01f, -1.18408665e-01f, 2.69783288e-01f, -1.52099833e-01f, -1.56816408e-01f, -3.14818397e-02f, 2.40332671e-02f, 2.78272092e-01f},
  {1.73733041e-01f, -3.26818019e-01f, -2.01229155e-01f, 1.53588533e-01f, 1.17203053e-02f, 5.97590804e-02f, 7.95079395e-02f, -2.23721862e-01f},
  {1.22415751e-01f, -2.76737660e-01f, -1.51509389e-01f, -1.86942801e-01f, 1.05009221e-01f, 3.52296606e-02f, 2.99416602e-01f, 4.41125989e-01f},
  {3.67602676e-01f, 2.28968263e-01f, 1.63502234e-03f, 8.58919546e-02f, 9.24625546e-02f, -7.61943981e-02f, -1.94121972e-01f, 7.56936908e-01f},
  {-3.25452894e-01f, -3.41357321e-01f, 2.90558845e-01f, 5.05621396e-02f, 2.79030055e-02f, -1.13212496e-01f, 5.81683367e-02f, -5.76432824e-01f},
  {4.76609468e-01f, -2.52712369e-02f, -1.33722320e-01f, 1.16850525e-01f, 2.77866181e-02f, 1.89374369e-02f, 1.12227865e-01f, -3.31728786e-01f},
  {5.12426347e-02f, 1.77957579e-01f, 8.53465870e-02f, 2.55023744e-02f, 1.80398121e-01f, 4.97444011e-02f, -1.62509218e-01f, 2.67779976e-01f},
  {-3.06354403e-01f, -3.57070297e-01f, -3.07252377e-01f, -1.67063519e-01f, -2.62528598e-01f, -4.34115715e-02f, -1.23510599e-01f, 1.31409273e-01f},
  {-1.00622371e-01f, -4.38799560e-01f, 8.36655051e-02f, -4.81968746e-02f, 1.02124348e-01f, -2.15740189e-01f, 3.51533741e-02f, 2.55231857e-01f},
  {4.01721932e-02f, -3.37199986e-01f, 5.70698678e-02f, 1.42833695e-01f, -4.59450036e-02f, 2.72734854e-02f, 3.41285855e-01f, -4.42437440e-01f},
  {-6.36601329e-01f, -1.59491345e-01f, -4.08426998e-03f, 1.75268240e-02f, -3.32223531e-03f, 2.96858624e-02f, -2.50615627e-02f, -3.24650109e-02f},
  {1.87567174e-01f, 5.63681088e-02f, -3.34008783e-01f, -5.41387379e-01f, -4.40820567e-02f, -5.07169440e-02f, 4.13317606e-03f, 6.68658912e-02f}
};
const float L0_B[64] = {1.21147092e-02f, 4.04771119e-02f, 1.83527321e-02f, -7.40146711e-02f, -8.40812773e-02f, 2.66203806e-02f, 6.35358226e-03f, -3.96982096e-02f, 4.39733416e-02f, 1.96299925e-02f, 6.00096397e-02f, 7.59867355e-02f, 2.30780412e-02f, -9.45293978e-02f, -2.25576051e-02f, -1.62862036e-02f, 4.38258145e-03f, -8.81233513e-02f, 4.12865123e-03f, -1.03962146e-01f, 6.66977093e-02f, -2.15228777e-02f, 1.28328741e-01f, 1.21855922e-02f, -6.11645309e-03f, -8.25628359e-03f, 3.92064825e-02f, 7.27110803e-02f, 7.84411356e-02f, -6.55725971e-02f, -4.00039256e-02f, 2.61294823e-02f, -7.54021183e-02f, 5.55220544e-02f, 7.14325383e-02f, 2.11094096e-02f, 1.61983294e-03f, 1.11666054e-03f, -9.25860181e-02f, -1.53536834e-02f, -8.22673831e-03f, -6.40523955e-02f, 1.45316739e-02f, -9.72180814e-02f, 1.96199547e-02f, 3.13702016e-03f, -1.12751201e-02f, 2.49346159e-02f, -1.64662395e-02f, 9.03214738e-02f, -6.12090491e-02f, -7.34230457e-03f, 5.19524887e-03f, 3.91344130e-02f, 6.18763864e-02f, -1.16146794e-02f, -2.53511942e-03f, 5.57807535e-02f, -3.55854481e-02f, 3.49930637e-02f, 7.70455413e-03f, -3.28740925e-02f, -1.43451057e-02f, 4.14660648e-02f};

const float L1_W[64][64] = {
  {1.26942441e-01f, -4.08579856e-01f, 2.53422469e-01f, -5.39887464e-03f, -3.46922517e-01f, 2.81595170e-01f, -4.15373862e-01f, -4.00952026e-02f, 2.74359882e-01f, -3.28855775e-02f, 1.60455167e-01f, 3.86512727e-02f, 3.11981618e-01f, -2.76842397e-02f, -8.92856196e-02f, 3.06381825e-02f, -2.99559295e-01f, -1.09996311e-01f, -8.44598711e-02f, -1.57955453e-01f, -1.19070224e-01f, -4.69755232e-02f, 2.94771641e-01f, -3.94146532e-01f, -1.15689650e-01f, -1.66967869e-01f, -3.08367908e-01f, 5.36864623e-02f, 3.72024179e-02f, 2.37195343e-01f, 3.91007997e-02f, 3.69846374e-01f, 1.78088829e-01f, 9.07476395e-02f, 1.07321136e-01f, 7.16256397e-03f, 6.61108941e-02f, 2.57897884e-01f, 3.30350727e-01f, 4.17688265e-02f, 2.62366980e-01f, 1.25935152e-01f, 8.82214680e-02f, -1.70205474e-01f, -1.15750261e-01f, -7.17941895e-02f, -2.53467709e-01f, -1.72428917e-02f, -4.93554994e-02f, -1.30320741e-02f, 1.72658265e-01f, 6.91078752e-02f, -1.04701541e-01f, 1.90307125e-01f, -1.85954079e-01f, 2.87387908e-01f, 1.03504725e-01f, 2.65238911e-01f, -4.70144348e-03f, -9.60122198e-02f, 8.32066312e-02f, -3.18566635e-02f, -1.11422375e-01f, -2.14586213e-01f},
  {-1.27757534e-01f, -1.13504358e-01f, 1.00323096e-01f, 3.28867398e-02f, -5.33686519e-01f, 1.19109578e-01f, 6.24219589e-02f, 9.83310193e-02f, -1.37263477e-01f, -4.56336066e-02f, -5.16904611e-03f, 8.77042621e-05f, 1.53692529e-01f, -1.30669415e-01f, -3.79858576e-02f, 3.11872691e-01f, 1.55372009e-01f, -7.67112896e-03f, 1.47568405e-01f, 8.11961293e-02f, -9.41737667e-02f, 7.60895237e-02f, 1.43705662e-02f, 1.73600897e-01f, 1.98878229e-01f, -8.65041763e-02f, -8.94848779e-02f, 3.60295102e-02f, 6.52244017e-02f, -3.70757192e-01f, -1.64874271e-01f, -2.99405515e-01f, 5.36989681e-02f, -1.24857314e-01f, 1.28115401e-01f, -1.91318467e-01f, 6.29534051e-02f, 9.88509506e-02f, -1.11914694e-01f, -2.88628131e-01f, -1.20979011e-01f, -3.58160138e-02f, 1.93891272e-01f, -7.58242533e-02f, -3.93523127e-02f, 3.09325149e-03f, -3.16636354e-01f, -1.29601702e-01f, -1.07916355e-01f, -1.45368412e-01f, -3.61719579e-02f, -2.04975337e-01f, 1.16575561e-01f, -3.33632708e-01f, -1.99775025e-02f, 3.41352701e-01f, 5.29482029e-02f, 3.93195927e-01f, 1.18216537e-01f, -6.58043250e-02f, 4.42167670e-02f, 3.06503624e-01f, -1.45386904e-01f, -6.28463626e-02f},
  {1.57607801e-03f, 1.57836452e-01f, 1.06308199e-01f, -7.18087777e-02f, -5.92242777e-02f, -8.40043575e-02f, -9.59381368e-03f, 1.95624515e-01f, -2.14910239e-01f, 1.63087144e-01f, -1.37081668e-01f, -1.02425091e-01f, -9.41973329e-02f, -1.96082845e-01f, -8.74601826e-02f, 2.27111727e-01f, -8.21113884e-02f, 2.49964312e-01f, -3.77793163e-02f, 1.49388880e-01f, -7.29770809e-02f, 1.15322374e-01f, 3.21416527e-01f, 1.98301692e-02f, -4.21444699e-02f, -2.63316873e-02f, -8.60784352e-02f, 2.51926541e-01f, 1.78859711e-01f, 2.61232346e-01f, -1.14203375e-02f, 1.85494095e-01f, -2.23845050e-01f, -5.03830016e-01f, -7.54060373e-02f, 3.38503644e-02f, 2.18824029e-01f, 1.31755263e-01f, -2.32191190e-01f, 1.07567385e-01f, 2.58751325e-02f, 2.92888910e-01f, -1.46654174e-01f, -1.81197360e-01f, 1.81039482e-01f, -1.68341830e-01f, -6.69472069e-02f, 5.01196921e-01f, -9.45825279e-02f, -2.06745431e-01f, 7.79652968e-02f, -1.31037608e-02f, 2.94710159e-01f, 3.30526352e-01f, 3.90392058e-02f, 6.50144890e-02f, -3.19362432e-02f, -1.12796172e-01f, -1.10295363e-01f, -1.88620567e-01f, 1.63421646e-01f, -1.91584170e-01f, 2.14883387e-01f, -8.87179375e-02f},
  {5.06333336e-02f, -2.07452532e-02f, -1.99258849e-02f, -4.73258123e-02f, 2.51856387e-01f, 6.77823350e-02f, -7.70127028e-02f, -5.82417957e-02f, -8.52087811e-02f, -2.04862207e-01f, 1.27438158e-01f, -2.50724666e-02f, -8.92622322e-02f, -8.31290632e-02f, 8.41979757e-02f, -5.48852868e-02f, 1.30081937e-01f, 8.02396238e-02f, 3.54485333e-01f, -4.40780371e-02f, -1.25789583e-01f, -1.16998209e-02f, -3.79647553e-01f, 8.55835676e-02f, -2.98580766e-01f, -1.37488142e-01f, -2.23359749e-01f, 2.09624320e-01f, -5.20792119e-02f, -2.25702837e-01f, -5.47026545e-02f, 9.76225436e-02f, 7.47349462e-04f, -3.77954841e-02f, 1.11884631e-01f, -2.11081013e-01f, -8.80148485e-02f, -1.67902306e-01f, 2.41821438e-01f, -1.36507496e-01f, 9.40726846e-02f, -2.69115232e-02f, 6.35607466e-02f, 2.31707752e-01f, 3.35029423e-01f, -2.80396909e-01f, 1.37186348e-01f, 1.46785304e-01f, 4.72115539e-03f, -2.97696143e-01f, -1.85907230e-01f, -4.22876447e-01f, 4.50973436e-02f, 1.62854970e-01f, -3.94353569e-02f, -2.35581636e-01f, 2.22499967e-01f, 4.53097701e-01f, 6.60574809e-02f, -7.03975335e-02f, 2.28420109e-01f, 1.20650113e-01f, 6.31616190e-02f, 2.75772507e-03f},
  {-3.24620873e-01f, -5.49912415e-02f, -4.59799580e-02f, -3.55714202e-01f, 5.27386926e-03f, -1.78439096e-01f, 1.62444502e-01f, 1.05598055e-01f, 6.71012029e-02f, -1.66645303e-01f, 1.14795595e-01f, -2.67573446e-01f, 2.64432818e-01f, -2.21179485e-01f, 2.33631115e-02f, -2.78729767e-01f, -2.77826071e-01f, -1.73129797e-01f, -1.07112899e-01f, -1.71773788e-02f, -1.25286579e-01f, 5.35346530e-02f, -5.04347801e-01f, -2.07555979e-01f, 2.24642932e-01f, 2.35483781e-01f, -1.57290697e-01f, 2.37786174e-01f, -2.43020892e-01f, -3.09669655e-02f, -2.07629148e-02f, 9.81862545e-02f, 7.21230805e-02f, 4.64645922e-02f, 3.29456598e-01f, -1.03714570e-01f, -3.99830155e-02f, 1.43587947e-01f, -5.47431074e-02f, 2.76077002e-01f, -5.76446317e-02f, -1.51055887e-01f, -1.49423569e-01f, -1.60957664e-01f, 2.03376457e-01f, 1.94212958e-01f, -8.30254927e-02f, 1.57673582e-01f, -2.06885904e-01f, -3.20294321e-01f, -2.37098381e-01f, -1.02295734e-01f, -4.25520204e-02f, -1.98598802e-02f, 1.83621198e-01f, 2.20016837e-01f, 4.44225222e-02f, -4.35173988e-01f, -3.85643274e-01f, -2.73257345e-02f, 1.69835627e-01f, 5.11868577e-03f, 1.92916356e-02f, 2.64712006e-01f},
  {5.07234074e-02f, 8.05641711e-02f, 1.04857273e-02f, -1.44162014e-01f, 5.03595881e-02f, -1.57093689e-01f, 1.81152686e-01f, -1.01521961e-01f, 2.19261944e-02f, 1.21179879e-01f, -1.36178076e-01f, -2.68006861e-01f, -9.37400758e-02f, -1.91213340e-01f, 8.34257603e-02f, 1.62026182e-01f, 2.50083923e-01f, 2.22641379e-02f, 2.57997274e-01f, 3.94332893e-02f, -3.36982608e-01f, -4.40945536e-01f, 3.43759060e-02f, -4.14239727e-02f, -1.36972934e-01f, -8.15502703e-02f, -2.12819785e-01f, -9.71775800e-02f, 8.63399506e-02f, 1.89658687e-01f, -6.14669211e-02f, -7.33177960e-02f, -3.51926386e-02f, 2.48979047e-01f, 2.06299856e-01f, 4.59386967e-03f, -4.25009966e-01f, -1.77695706e-01f, -3.54588300e-01f, -3.63934375e-02f, -3.49170081e-02f, -2.69176185e-01f, -8.23924597e-03f, 9.21455398e-03f, -6.27018660e-02f, 5.08555062e-02f, -2.29368597e-01f, -3.70919704e-02f, 4.94081341e-03f, -3.96905094e-02f, 3.36642593e-01f, 8.16805288e-02f, -6.90025389e-02f, 3.31277072e-01f, -1.39444485e-01f, 2.63831884e-01f, 1.53725669e-01f, 2.49159813e-01f, -1.02177402e-02f, 1.36644736e-01f, -2.73653865e-01f, 1.11395307e-02f, 2.24879518e-01f, -8.78105983e-02f},
  {1.06788285e-01f, 3.84626873e-02f, 8.23830143e-02f, 1.53901130e-01f, 2.50288576e-01f, -1.25811651e-01f, -1.48217872e-01f, 1.35234728e-01f, 1.01617418e-01f, 3.46859634e-01f, 3.43022235e-02f, -3.55604501e-03f, 3.06136101e-01f, 1.82861939e-01f, 1.19727977e-01f, -7.90616870e-02f, 1.62106559e-01f, -2.64964283e-01f, -1.09317325e-01f, -1.52428865e-01f, 2.30174005e-01f, 1.64345372e-02f, 2.06306666e-01f, 3.93744223e-02f, -1.71727762e-02f, -3.42456996e-02f, -3.74840051e-01f, -1.16466530e-01f, 5.49036786e-02f, 9.68574807e-02f, 4.97475490e-02f, -1.20248087e-01f, -5.78538217e-02f, 1.91884220e-01f, 1.18027501e-01f, -2.26370394e-01f, -9.22891125e-02f, -3.11228961e-01f, 1.73774242e-01f, -3.14108908e-01f, -2.10368589e-01f, -3.09005201e-01f, 9.48735140e-03f, -1.69212550e-01f, -1.10978708e-01f, 7.92451948e-02f, 9.41938907e-02f, 3.86570580e-02f, 2.18898475e-01f, -3.30366530e-02f, -1.37127534e-01f, -1.03544928e-01f, 4.67804521e-01f, -2.57431753e-02f, -5.27176484e-02f, 6.26908094e-02f, -2.43061632e-02f, -4.40226644e-02f, -5.08831255e-02f, -3.84770632e-01f, 1.82554312e-02f, 9.96335223e-02f, 2.75707930e-01f, -6.17145300e-02f},
  {1.02040015e-01f, 1.62935987e-01f, -1.06952794e-01f, -1.49250761e-01f, 3.85764800e-02f, 3.99710909e-02f, 2.71133900e-01f, 7.82826096e-02f, 9.96849127e-03f, -1.75373200e-02f, 1.83524832e-01f, 2.37680022e-02f, 1.07096590e-01f, 3.77579331e-02f, -3.62682760e-01f, 2.39071116e-01f, 3.27842124e-03f, 4.73729521e-01f, -7.93750882e-02f, -2.21989349e-01f, -2.05595776e-01f, -2.00276792e-01f, -1.63238645e-01f, 7.50959814e-02f, 4.10028920e-03f, -1.15449719e-01f, -1.81680337e-01f, -1.21132292e-01f, 1.67779461e-01f, -1.17355168e-01f, 2.64512897e-02f, -8.95154774e-02f, 1.30363807e-01f, 2.81937540e-01f, -2.77497649e-01f, 3.03307831e-01f, -3.40063758e-02f, -8.12442899e-02f, 5.06421804e-01f, -1.96898788e-01f, -2.33764514e-01f, 1.58792123e-01f, 1.89566314e-01f, -6.69449568e-02f, -7.99723566e-02f, 3.03805947e-01f, 6.73813596e-02f, 3.03285360e-01f, 9.30332989e-02f, -4.11105379e-02f, 1.11442208e-01f, 8.31971243e-02f, -1.57069951e-01f, -7.56428391e-02f, 6.33018240e-02f, -1.80081338e-01f, 9.72751305e-02f, -4.99655912e-03f, -3.39945138e-01f, 4.74544652e-02f, -1.93714676e-03f, 4.14235145e-01f, 2.30115965e-01f, -7.71790370e-02f},
  {-2.67999262e-01f, -8.63287374e-02f, 5.45869768e-01f, -1.82594702e-01f, 2.10057646e-01f, 3.72098088e-01f, 1.25600129e-01f, -1.41876325e-01f, -2.24920824e-01f, -1.20476961e-01f, -3.96561213e-02f, -6.86856173e-03f, -1.03030756e-01f, -2.49039337e-01f, -6.32542446e-02f, 8.74594506e-03f, -8.65604728e-02f, -8.06924626e-02f, 2.83777088e-01f, -1.77071825e-01f, 9.61339027e-02f, 1.58545583e-01f, 2.99743056e-01f, -1.50079150e-02f, -8.93482268e-02f, -1.00307763e-02f, -6.38893098e-02f, 2.86095329e-02f, 2.76896864e-01f, 8.81991535e-02f, -2.73259312e-01f, -6.31186962e-02f, 1.11720629e-01f, 1.49162605e-01f, 6.24621622e-02f, -1.00097463e-01f, 5.29193971e-03f, 6.81492761e-02f, 1.33902058e-01f, 8.63068923e-02f, 8.31865147e-02f, 9.52750072e-03f, -2.80840863e-02f, 1.79141000e-01f, -3.56873214e-01f, 1.15342528e-01f, -1.34433776e-01f, 9.41310264e-03f, 9.46838185e-02f, -1.84786059e-02f, 1.09286599e-01f, -2.33560845e-01f, 1.79600060e-01f, 8.31689090e-02f, 2.66997069e-01f, -2.52159178e-01f, 2.30520889e-01f, -2.95535743e-01f, 1.07538439e-01f, -4.32171486e-02f, -2.79156536e-01f, 5.73315807e-02f, -9.11701024e-02f, 1.63509369e-01f},
  {6.90384954e-02f, 1.41566858e-01f, -8.25216249e-02f, -4.95361676e-03f, -7.44076669e-02f, 5.70174307e-02f, 2.62084275e-01f, 5.21588504e-01f, 1.53415442e-01f, -5.43408468e-02f, 2.08574031e-02f, -2.74723053e-01f, -9.85883400e-02f, 2.32552022e-01f, -2.44338904e-02f, -1.78168476e-01f, 1.99609343e-02f, 1.56066045e-01f, -1.24589562e-01f, -3.02813888e-01f, -3.17845285e-01f, 7.29232794e-03f, -5.08103967e-02f, 2.62099113e-02f, -2.11248100e-02f, 6.07852526e-02f, 1.91024654e-02f, 3.12728435e-01f, 1.11897953e-01f, -2.14648321e-01f, -2.93534040e-01f, -1.00153476e-01f, -1.79845411e-02f, -1.16504356e-01f, -2.60654032e-01f, -2.04210952e-01f, -1.18136354e-01f, 2.52326280e-01f, 1.07803039e-01f, 4.85828482e-02f, 1.60145864e-01f, -2.71074861e-01f, 1.97399899e-01f, -2.16423371e-03f, -1.75116137e-01f, -6.58003381e-03f, -1.74972221e-01f, -8.60683322e-02f, 1.19374976e-01f, 2.45310441e-01f, -1.02255724e-01f, -1.77347973e-01f, -4.43036892e-02f, 1.59010917e-01f, -2.02043839e-02f, 6.27959073e-02f, -3.07388753e-01f, -8.11249425e-04f, -4.48903702e-02f, -6.81889355e-02f, -1.54271170e-01f, -3.81582856e-01f, 3.16052996e-02f, 5.91992140e-02f},
  {-5.13004601e-01f, 1.49629414e-01f, -2.90826410e-01f, 2.97985822e-01f, -1.42751902e-01f, 3.94812584e-01f, 3.55067104e-02f, 3.53171080e-02f, -2.50331640e-01f, -1.06945895e-01f, -2.87422121e-01f, -2.57534891e-01f, 1.97167844e-01f, -4.39513661e-02f, -6.34108111e-02f, -2.29628190e-01f, 8.21150746e-03f, 1.40754562e-02f, 9.12639201e-02f, 6.58609644e-02f, -1.05200090e-01f, 1.42474398e-01f, -1.07730534e-02f, -4.20828052e-02f, -3.49964559e-01f, 9.25502852e-02f, 1.21799283e-01f, -1.48321106e-03f, 2.41523638e-01f, -2.02894047e-01f, 1.72556341e-01f, 1.53000340e-01f, 1.32749960e-01f, 1.71099171e-01f, 2.98260778e-01f, 3.75332162e-02f, -3.88863720e-02f, -6.97560087e-02f, 3.41059595e-01f, -1.22792564e-01f, -1.69993937e-01f, 7.88123086e-02f, -6.19587023e-03f, 1.60275057e-01f, 2.23788992e-01f, 2.65290827e-01f, 1.93543807e-01f, 2.04654168e-02f, 2.19670027e-01f, 6.18981011e-03f, 2.87010163e-01f, 2.74167489e-02f, 1.02533381e-02f, 1.10352673e-01f, -2.69204795e-01f, 1.45239942e-02f, -1.59917131e-01f, -4.58769267e-03f, 3.48521844e-02f, -1.26341015e-01f, -7.28032067e-02f, -1.06846355e-01f, 5.02091497e-02f, -3.67941588e-01f},
  {-2.76199579e-01f, 3.09846312e-01f, 2.42033843e-02f, -1.61252834e-03f, -5.89789525e-02f, 6.84011877e-02f, -3.48893888e-02f, 2.81245261e-01f, 2.91342765e-01f, -1.75688475e-01f, -2.28865981e-01f, 1.32431716e-01f, -3.55798572e-01f, -1.98581576e-01f, 1.81764975e-01f, -4.51934002e-02f, 1.89596072e-01f, 7.68331736e-02f, -1.86620191e-01f, 1.22284353e-01f, -6.99354634e-02f, 3.32127698e-02f, -1.28833786e-01f, 1.01711683e-01f, 3.67683694e-02f, -2.21636981e-01f, -1.22045927e-01f, -1.42874286e-01f, -3.98933850e-02f, 3.53581786e-01f, 1.73405781e-01f, 2.06173927e-01f, -3.41582112e-02f, 2.00270578e-01f, 2.35161439e-01f, 2.38276869e-02f, 3.29026550e-01f, 2.61333287e-01f, 1.91078842e-01f, -2.79849559e-01f, 1.00244708e-01f, -1.77840486e-01f, -1.44349188e-01f, 1.12490945e-01f, 9.16141868e-02f, -3.29120532e-02f, -3.15638244e-01f, -9.66237206e-03f, -6.75323326e-03f, 2.88505077e-01f, -2.37681106e-01f, -4.33322079e-02f, -2.45262291e-02f, 9.70899612e-02f, 6.64085373e-02f, 6.69580549e-02f, 1.73750326e-01f, -1.29194111e-01f, 1.95125505e-01f, 2.26991549e-01f, 9.43263471e-02f, 2.12312013e-01f, 2.81586677e-01f, 6.79886267e-02f},
  {1.90540347e-02f, 1.15595885e-01f, -2.50178557e-02f, 1.38793081e-01f, 1.10294960e-01f, 1.42408535e-01f, -1.26243159e-01f, 2.11815268e-01f, -6.85491487e-02f, -1.16068587e-01f, -5.68902725e-03f, -2.71809369e-01f, -1.14266835e-01f, 4.11007404e-02f, 1.57182932e-01f, 4.40416902e-01f, -2.66621411e-01f, -5.25056608e-02f, -8.77791494e-02f, -8.09760913e-02f, 4.52935621e-02f, -1.87302977e-01f, 8.31180140e-02f, 4.50766645e-02f, 3.40144671e-02f, 8.95595923e-02f, 4.15766686e-02f, -5.15759706e-01f, -1.02917656e-01f, -7.25191832e-02f, -4.36481982e-01f, -7.50677809e-02f, 1.70825064e-01f, 1.01548585e-03f, 3.40886503e-01f, -4.18584459e-02f, -1.98628739e-01f, 2.43889866e-03f, 9.14037134e-03f, 2.04545915e-01f, 1.36619955e-01f, 2.36914977e-01f, -8.03919211e-02f, 8.11069012e-02f, -1.90469131e-01f, -2.11737141e-01f, 8.95196721e-02f, 2.07855985e-01f, -2.51873732e-02f, 1.12060286e-01f, -1.35885790e-01f, -2.39657387e-01f, -3.89231034e-02f, -1.23568214e-01f, -1.59485221e-01f, 2.07400583e-02f, -1.60641566e-01f, -1.06762595e-01f, -1.66471899e-02f, -7.84274191e-02f, 4.01877135e-01f, -1.82197034e-01f, 1.76422596e-01f, 2.10608006e-01f},
  {-6.92906603e-02f, -2.10576262e-02f, -1.00168347e-01f, 1.94617227e-01f, -2.46664554e-01f, -1.46479845e-01f, -3.39926898e-01f, -1.25576526e-01f, -7.89384469e-02f, 3.48765850e-01f, -2.51001492e-02f, -2.97574013e-01f, 1.85623690e-02f, -2.26612508e-01f, -5.33487685e-02f, -5.57290297e-03f, -1.70366049e-01f, -1.68139562e-02f, -6.12389967e-02f, -5.60364686e-02f, 4.08742316e-02f, -2.97560632e-01f, -1.55829772e-01f, 2.57029198e-02f, 3.32498886e-02f, -1.23297036e-01f, 3.28383684e-01f, 2.78705712e-02f, -1.46641955e-01f, 2.44694233e-01f, -6.87580928e-02f, -1.09737478e-01f, -9.13192406e-02f, 1.36813037e-02f, -4.22349244e-01f, -2.38827810e-01f, 1.52776241e-01f, 2.22008392e-01f, -7.85641894e-02f, 3.06124926e-01f, -1.58370242e-01f, -1.44774735e-01f, 8.55414663e-03f, -8.44680965e-02f, 1.40744418e-01f, 5.37813753e-02f, 3.45930904e-02f, 8.38521048e-02f, 2.40530729e-01f, 3.00215214e-01f, 8.40193406e-02f, -1.69765979e-01f, -2.17515379e-01f, -1.18968606e-01f, -2.41973370e-01f, -4.48924214e-01f, 3.27220649e-01f, 1.89546391e-01f, 2.63649315e-01f, -2.74311870e-01f, -2.57639825e-01f, 2.13786319e-01f, 1.83183759e-01f, 3.80000353e-01f},
  {-2.90206254e-01f, 1.02801183e-02f, -2.94644803e-01f, -1.06535554e-01f, -6.32523820e-02f, 1.90546736e-01f, 2.09712550e-01f, 3.11552554e-01f, 2.70770350e-03f, 2.97527701e-01f, -3.10361773e-01f, 1.65841043e-01f, -1.02483012e-01f, 3.71433645e-01f, 2.26428777e-01f, -1.03533439e-01f, 1.66564271e-01f, -1.92170978e-01f, -1.81865320e-01f, -1.92415267e-01f, -1.52065948e-01f, 1.30185587e-02f, -9.17425528e-02f, -4.04651798e-02f, 2.12564558e-01f, 1.40293062e-01f, -2.66762495e-01f, -2.07220703e-01f, -1.59160614e-01f, 1.52794912e-01f, -3.15376788e-01f, -3.98237437e-01f, 1.90416351e-01f, 1.52871624e-01f, -3.20911944e-01f, 2.05068931e-01f, -2.06471950e-01f, 2.88596928e-01f, -2.48306438e-01f, 1.68160066e-01f, -3.42783272e-01f, 2.26243913e-01f, -1.05680414e-01f, 4.33811814e-01f, 4.85447198e-01f, -2.76432261e-02f, -2.88056135e-01f, -3.78631167e-02f, -2.39086062e-01f, -2.05425471e-01f, 4.70896959e-01f, 1.59244031e-01f, 3.49626206e-02f, -2.74047464e-01f, -7.36456960e-02f, -4.86903191e-01f, 2.28952989e-01f, -4.70451675e-02f, -3.66968453e-01f, -1.27678394e-01f, 3.95714670e-01f, 1.10925930e-02f, -1.44095898e-01f, -1.02487803e-01f},
  {1.66351721e-01f, 1.17365398e-01f, 2.62871474e-01f, 1.68158427e-01f, -1.11076191e-01f, -5.76654784e-02f, -7.91388154e-02f, -2.10151993e-05f, -3.13172311e-01f, 5.30534424e-02f, -9.89812315e-02f, -2.83995897e-01f, -1.13177299e-02f, 2.89118022e-01f, 1.11921979e-02f, -1.36792451e-01f, 2.04848927e-02f, -1.16053997e-02f, 3.32715780e-01f, -4.50053774e-02f, -3.21999222e-01f, -1.22656785e-01f, 1.15463622e-01f, -4.29699093e-01f, -2.61573829e-02f, -3.19569230e-01f, -2.88060248e-01f, -1.23844840e-01f, -1.06128193e-01f, -1.93810791e-01f, 2.14010537e-01f, 8.48564059e-02f, 1.73564057e-03f, -2.53371030e-01f, 1.97962284e-01f, 2.89071184e-02f, 1.91484630e-01f, -2.38472000e-02f, 2.13759214e-01f, 1.40828267e-01f, 3.34398329e-01f, -1.99102685e-02f, -6.50184572e-01f, 1.29268095e-01f, -2.03318939e-01f, 2.10673437e-01f, -2.10397243e-01f, 1.25880614e-01f, 3.51026505e-01f, 6.60469830e-02f, 8.89462605e-02f, 1.58611715e-01f, -1.91711467e-02f, -7.89566785e-02f, 1.53857484e-01f, 1.45789936e-01f, -3.05871308e-01f, -5.24588227e-02f, 2.48012338e-02f, -2.72333205e-01f, -3.81006412e-02f, 6.56869411e-01f, -4.59728837e-01f, -2.52244711e-01f},
  {-4.83559594e-02f, 8.16057995e-02f, 2.60548592e-01f, 3.28586459e-01f, 8.56365710e-02f, -3.01164016e-02f, 2.09822729e-01f, 3.70207608e-01f, -1.46222532e-01f, -4.30712178e-02f, 2.33358636e-01f, 3.17658484e-01f, -1.61140963e-01f, -2.02205032e-02f, -1.00760311e-01f, -4.71763946e-02f, 9.61812213e-02f, -4.88312058e-02f, 3.78621459e-01f, 3.16934986e-03f, 1.58814847e-01f, -2.89804250e-01f, 5.20571582e-02f, -4.45975363e-01f, -2.64201671e-01f, -1.11745700e-01f, 2.55437821e-01f, 2.14919671e-02f, -5.12248389e-02f, -1.10304363e-01f, 2.09789708e-01f, 1.60350613e-02f, 1.69391885e-01f, -2.58110277e-02f, -6.01724014e-02f, -3.25252861e-02f, -2.66131699e-01f, 2.69819707e-01f, -5.95617965e-02f, -2.44611241e-02f, 1.59929514e-01f, -8.31420869e-02f, 9.27282795e-02f, -2.30388269e-01f, 1.43272832e-01f, -7.06591010e-02f, 4.12004674e-03f, -1.87267572e-01f, -2.82434255e-01f, -2.95091718e-02f, -1.23696066e-01f, 4.73977178e-02f, 3.43315117e-02f, -2.08076298e-01f, -2.73304611e-01f, -1.23044528e-01f, 8.87634605e-03f, -1.20810822e-01f, -2.18484312e-01f, -4.36177514e-02f, -7.53395259e-02f, 1.03147581e-01f, 2.75261134e-01f, -3.67237814e-02f},
  {6.06078319e-02f, -1.47447824e-01f, -2.39348531e-01f, 1.74868241e-01f, 1.55640319e-01f, 1.64415345e-01f, -2.59474188e-01f, -1.02897063e-01f, 6.75239265e-02f, -5.62963150e-02f, -6.49117529e-02f, -2.60698125e-02f, -3.13808769e-01f, 1.32245431e-02f, -3.36973310e-01f, 9.66268331e-02f, -2.98147002e-04f, -3.62887084e-02f, 3.71580124e-02f, 2.17602983e-01f, 2.05852360e-01f, 2.82972190e-03f, -8.86207819e-02f, 1.94349900e-01f, -4.37902994e-02f, -4.91165072e-01f, -2.90270954e-01f, -1.75863087e-01f, 2.16627046e-01f, -2.02796683e-01f, 8.92376993e-03f, -1.12470388e-01f, -2.20850378e-01f, 3.59189808e-02f, 3.30277234e-02f, -3.72980125e-02f, -1.59119040e-01f, 3.32931936e-01f, 1.69841021e-01f, 1.58206031e-01f, -5.73754171e-03f, -6.53404146e-02f, -7.28451740e-03f, -5.47687300e-02f, 2.43278712e-01f, 1.43975466e-01f, 9.69418660e-02f, -7.35490769e-02f, -1.53452218e-01f, 9.95786116e-03f, 1.52214214e-01f, 5.61655425e-02f, -6.68727681e-02f, 3.98147367e-02f, 3.77475441e-01f, 1.60139099e-01f, -2.57094353e-01f, -4.86809947e-03f, -2.39849668e-02f, -1.96242139e-01f, -1.60938635e-01f, -2.67176658e-01f, 6.55291602e-02f, 3.44334304e-01f},
  {-3.25952232e-01f, -1.03362706e-02f, -6.59439862e-02f, -2.36859053e-01f, 5.23846708e-02f, -6.79536387e-02f, -3.08060728e-04f, 1.40920937e-01f, 2.26516694e-01f, 7.65096222e-04f, 1.15032807e-01f, -9.79975984e-02f, -2.10296601e-01f, -2.12878764e-01f, 1.07402436e-01f, -3.23490030e-03f, 1.44314885e-01f, -1.12617113e-01f, -6.98288977e-02f, 1.03145823e-01f, 1.65050432e-01f, 1.32730827e-01f, 9.72497538e-02f, -1.64878190e-01f, -2.25551009e-01f, -2.55802497e-02f, -1.71830460e-01f, -1.57301202e-01f, 1.06866814e-01f, -2.11347744e-01f, -2.14830697e-01f, 3.36558431e-01f, -1.54076785e-01f, -1.29981443e-01f, -3.36789668e-01f, -2.57544309e-01f, 1.01731986e-01f, 1.70949083e-02f, -3.18317741e-01f, 4.17372100e-02f, -1.10811286e-01f, 5.09504005e-02f, 4.72822823e-02f, 3.60788815e-02f, -2.69955307e-01f, 1.22347526e-01f, 1.76351920e-01f, 6.41618967e-02f, -2.53099389e-02f, -7.43545592e-02f, -1.00019194e-01f, 1.58755526e-01f, -2.85350591e-01f, -3.75626564e-01f, 1.97031721e-01f, 5.56487925e-02f, 1.05886981e-01f, 6.11346625e-02f, 1.70067221e-01f, -2.65631169e-01f, -5.07536111e-03f, 6.43776581e-02f, 2.19640046e-01f, -3.64152879e-01f},
  {9.65595543e-02f, -1.29827395e-01f, 2.62459274e-03f, 1.45300627e-01f, 4.45552208e-02f, 2.58093834e-01f, 1.28577664e-01f, -4.19535786e-02f, 1.23006530e-01f, -2.16556966e-01f, 8.57260004e-02f, -1.94207445e-01f, -6.01321124e-02f, -1.54936850e-01f, -9.16813985e-02f, 2.49068856e-01f, 5.14315724e-01f, -5.67020150e-03f, -6.27192929e-02f, 1.02126248e-01f, 1.39151022e-01f, -2.15036452e-01f, 5.88921905e-02f, 3.81902792e-02f, 2.20792606e-01f, -9.87901166e-02f, 3.90728787e-02f, 2.63470441e-01f, -2.66250968e-01f, 5.23149893e-02f, 3.65611464e-01f, -2.25686073e-01f, 3.17603320e-01f, 3.41727845e-02f, 1.25243038e-01f, -1.00427970e-01f, 2.90048033e-01f, 8.03080872e-02f, -6.38490170e-02f, 3.43596027e-03f, 1.51493311e-01f, 4.18395028e-02f, 1.23072393e-01f, -2.12528035e-02f, -1.30256727e-01f, 9.42223817e-02f, 1.32737234e-01f, 1.01475187e-01f, 6.08860813e-02f, -1.93771869e-01f, 3.48441511e-01f, -6.84225466e-03f, 1.22678936e-01f, -1.27656862e-01f, 4.15953472e-02f, -2.50397455e-02f, -6.88199103e-02f, -6.24430850e-02f, -2.71765385e-02f, -1.86655790e-01f, -7.04280213e-02f, -8.34619924e-02f, 9.90843698e-02f, 6.71805218e-02f},
  {5.22240344e-03f, -1.33357942e-01f, 2.51033127e-01f, -1.68411031e-01f, 1.85735941e-01f, 2.21410707e-01f, -1.08904690e-01f, 1.74012661e-01f, 8.37640762e-02f, 3.83502513e-01f, -2.47871578e-01f, 2.28050575e-01f, 2.23532334e-01f, 7.66993081e-03f, 7.89626166e-02f, 2.38627031e-01f, -2.00315177e-01f, 2.29392424e-01f, 2.20753402e-01f, 2.67471433e-01f, 2.11978741e-02f, -9.51858163e-02f, -4.03602540e-01f, -3.18140313e-02f, 4.26564276e-01f, -3.66839617e-01f, 1.58322185e-01f, 2.41914794e-01f, -2.30069570e-02f, 2.45034862e-02f, 5.47706969e-02f, 1.24951281e-01f, -1.25112832e-01f, -1.45057097e-01f, -1.06506072e-01f, -1.01234287e-01f, 1.51746646e-01f, -1.89657975e-02f, 3.66166204e-01f, 1.92208976e-01f, 5.72652578e-01f, -1.09015651e-01f, -1.86788678e-01f, 2.76780576e-01f, -2.50373930e-01f, 9.69948992e-02f, -1.43635467e-01f, 3.00500393e-02f, 1.97727948e-01f, 1.06849276e-01f, 1.96015999e-01f, 1.65125191e-01f, 2.75821567e-01f, -1.83439225e-01f, -2.88551956e-01f, -4.96612443e-03f, -8.68649408e-02f, 5.17758951e-02f, 9.84642878e-02f, -2.70088792e-01f, 1.09452598e-01f, -1.35842428e-01f, -1.31866246e-01f, -2.83703357e-01f},
  {4.83843163e-02f, 3.23598772e-01f, -1.35462448e-01f, -1.34597123e-01f, -8.07858855e-02f, -1.19861821e-02f, 7.45298266e-02f, -3.57696056e-01f, -2.43732765e-01f, -8.79502222e-02f, -1.33642346e-01f, 4.27409559e-01f, 1.78312995e-02f, 2.46655717e-01f, 2.20291898e-01f, 7.33472034e-02f, 1.75629094e-01f, 2.97053516e-01f, 1.04651421e-01f, -2.51671970e-01f, -2.62794942e-01f, -1.63986072e-01f, 3.69052500e-01f, 1.01572901e-01f, 2.17807263e-01f, 2.63814896e-01f, -2.42882624e-01f, 1.29940912e-01f, -2.33231500e-01f, -4.44648154e-02f, -7.01442640e-03f, 1.74763173e-01f, -2.00745881e-01f, 1.90406293e-01f, 1.57657802e-01f, -2.47551948e-01f, -1.37394071e-01f, 2.74960637e-01f, 1.79767340e-01f, 1.27110213e-01f, -5.60389534e-02f, 1.12489641e-01f, 1.28774479e-01f, -2.22956315e-01f, 9.36172679e-02f, 2.16786578e-01f, 1.73298731e-01f, -4.91404533e-02f, -2.41492301e-01f, 2.13995442e-01f, 8.05217847e-02f, -3.93502980e-01f, -5.32710589e-02f, -2.46527612e-01f, 5.73134888e-03f, 9.98460725e-02f, 2.16071323e-01f, -1.35493070e-01f, 8.80582631e-02f, -8.58800337e-02f, -5.25504118e-03f, -2.06150278e-01f, -3.10076214e-02f, -1.80314451e-01f},
  {1.59280241e-01f, -8.26757848e-02f, -2.12906674e-02f, 2.39835516e-01f, -3.19102019e-01f, 4.30670008e-02f, -9.90892649e-02f, -5.13127306e-03f, -3.65650535e-01f, -1.29489154e-01f, 1.99617013e-01f, 1.26189694e-01f, 1.25647947e-01f, 5.98271526e-02f, 1.37509614e-01f, -5.49211688e-02f, 3.20621848e-01f, -1.41939774e-01f, -4.15213257e-02f, 2.68287718e-01f, -1.68847740e-01f, -1.85645863e-01f, 7.88161755e-02f, 1.23341210e-01f, 1.64475422e-02f, 3.48868035e-02f, -1.75703317e-01f, -7.89024234e-02f, 3.67232800e-01f, 5.98216467e-02f, -3.48050922e-01f, 5.82323484e-02f, -1.42763346e-01f, -1.92311164e-02f, -2.84173310e-01f, 1.83293268e-01f, 3.62677157e-01f, -2.01226786e-01f, 2.06544578e-01f, 1.37870461e-01f, 2.24311963e-01f, -1.73614293e-01f, -1.10324867e-01f, 1.31960079e-01f, -5.35166971e-02f, 7.91034997e-02f, 2.11307146e-02f, -7.64990002e-02f, -1.35266080e-01f, -2.00427905e-01f, -2.92179495e-01f, 1.01413675e-01f, -2.09779054e-01f, 5.95141463e-02f, -2.30642393e-01f, 1.47895096e-03f, 1.99749410e-01f, -2.15721473e-01f, -7.61810392e-02f, -1.20967090e-01f, -2.19769180e-02f, -1.59280747e-01f, 4.04052250e-02f, 2.36733302e-01f},
  {-1.73781022e-01f, -7.81754851e-02f, 2.14785740e-01f, -2.09936082e-01f, 5.83435707e-02f, -1.84238628e-01f, 1.34353876e-01f, -5.38588278e-02f, -3.24603952e-02f, 1.45040303e-01f, 1.94794714e-01f, 9.62406397e-02f, -1.07737109e-01f, 3.88759911e-01f, 2.26037428e-01f, 2.80590225e-02f, -1.22250341e-01f, 1.36930170e-02f, -6.51119277e-02f, -5.21559715e-02f, 7.83914253e-02f, 7.89567530e-02f, 3.78412604e-01f, -1.18208550e-01f, 1.43177658e-01f, -4.03078556e-01f, 1.73707440e-01f, 5.05588502e-02f, -1.21697575e-01f, 5.03982091e-03f, 6.76106885e-02f, 3.36199254e-01f, 2.73378223e-01f, -8.54312479e-02f, 1.56038091e-01f, -7.46818185e-02f, 4.90287304e-01f, -3.28740217e-02f, -5.59437685e-02f, 3.47354561e-02f, -2.07523599e-01f, -7.94924572e-02f, 1.25861362e-01f, 2.18321174e-01f, 1.29575714e-01f, -1.07600905e-01f, -1.44263119e-01f, 1.19476400e-01f, 3.62649038e-02f, -8.29300657e-02f, -8.90792385e-02f, -1.44925326e-01f, -2.49564514e-01f, 2.42011756e-01f, -4.76629697e-02f, 1.54259019e-02f, -3.56067657e-01f, 2.26010084e-01f, -6.49384186e-02f, -2.02968553e-01f, -1.65516898e-01f, -1.66005924e-01f, 9.75652933e-02f, 3.75927716e-01f},
  {-1.15913540e-01f, 3.07268232e-01f, -6.87096566e-02f, -7.70395398e-02f, -3.12000923e-02f, -2.02077240e-01f, 2.06640244e-01f, 2.41824940e-01f, -4.10936736e-02f, -2.37543553e-01f, 4.16178018e-01f, -3.37821513e-01f, 3.02672803e-01f, -3.81115824e-02f, 2.98171729e-01f, -1.89924181e-01f, -2.69102454e-02f, -2.48160079e-01f, 1.57700107e-01f, -3.44943911e-01f, -1.29371792e-01f, 4.94551718e-01f, -2.16337278e-01f, 4.12630260e-01f, -7.58142620e-02f, -4.39859256e-02f, -4.47942428e-02f, -2.30505034e-01f, -1.08727038e-01f, 3.25904846e-01f, 2.95502990e-01f, 1.61708251e-01f, 1.73645377e-01f, -2.96420362e-02f, -1.83719620e-01f, -9.38158482e-02f, -2.74422735e-01f, 1.41336871e-02f, 2.73669392e-01f, 3.03085774e-01f, 2.35677063e-02f, -1.40847430e-01f, -1.21337278e-02f, -1.64393023e-01f, 6.65140375e-02f, -2.08411217e-01f, -3.05435751e-02f, 2.12283000e-01f, -5.53836703e-01f, -1.83360934e-01f, 3.57066989e-01f, 5.25991246e-02f, 7.55384862e-02f, -1.25556260e-01f, 2.44955912e-01f, 2.91960128e-03f, -4.48222794e-02f, -4.89860401e-02f, 1.77849606e-01f, 2.05597848e-01f, 6.09473176e-02f, -2.16943130e-01f, -2.84867249e-02f, 1.28440401e-02f},
  {1.99875291e-02f, 2.51796514e-01f, 4.96817986e-03f, 3.71499062e-01f, 7.71607533e-02f, -4.35417593e-01f, 3.91734242e-02f, 3.82400155e-01f, 7.22368360e-02f, -9.83538404e-02f, -4.16310966e-01f, 7.13291541e-02f, 2.28107423e-01f, -2.19212905e-01f, 9.45568979e-02f, 1.84361428e-01f, -2.07795367e-01f, -4.14620638e-02f, -9.55053419e-02f, -1.81787878e-01f, 2.58976161e-01f, -6.55638352e-02f, 1.26230255e-01f, -9.00700763e-02f, -3.08565865e-03f, 1.60774998e-02f, -5.40368296e-02f, 8.87690932e-02f, 1.45394221e-01f, -1.52412966e-01f, 2.98850052e-02f, -1.93981174e-02f, 1.07421063e-01f, -2.10061446e-02f, -1.83344275e-01f, 1.57846242e-01f, 2.14021474e-01f, -3.20559293e-02f, 4.09297012e-02f, 9.65541750e-02f, 5.64377122e-02f, 4.94697802e-02f, 4.99995425e-02f, 1.00089408e-01f, 1.39774680e-01f, -5.46223670e-02f, 1.33775488e-01f, -2.93074511e-02f, -4.35755551e-02f, -1.17552646e-01f, 2.64893085e-01f, -2.03649774e-01f, -8.25198665e-02f, 4.26620729e-02f, 1.95643343e-02f, 3.39517623e-01f, 2.14762375e-01f, -1.07108824e-01f, 5.11539206e-02f, -8.79445393e-03f, -1.17130943e-01f, 1.41084552e-01f, -2.20252037e-01f, 2.21524343e-01f},
  {2.22707495e-01f, 1.67296693e-01f, 6.22766465e-02f, -4.63718742e-01f, 1.54250458e-01f, 6.52904510e-02f, -2.16464341e-01f, -1.19976429e-02f, -5.26036806e-02f, 3.04417551e-01f, -1.00979172e-01f, -1.27544589e-02f, 5.35081625e-02f, -1.17554918e-01f, 2.80561715e-01f, 2.88296372e-01f, -6.73248470e-02f, -1.86686724e-01f, 5.33918999e-02f, 1.80741444e-01f, -4.87761311e-02f, 3.46149281e-02f, -2.46419515e-02f, -1.37427822e-01f, -6.01587892e-01f, 1.79467630e-02f, -1.77438334e-01f, 1.06766626e-01f, -1.31846637e-01f, 2.70331074e-02f, -3.67169008e-02f, -3.37115496e-01f, 3.20220381e-01f, 1.10605136e-01f, -1.80255845e-01f, -2.12318804e-02f, 4.35979217e-01f, 1.69001684e-01f, 7.20177218e-02f, 2.48636492e-02f, -1.49934441e-01f, -8.24819133e-02f, -1.07654430e-01f, -2.61535704e-01f, 1.48121089e-01f, 1.41897991e-01f, -4.55021597e-02f, -2.25637015e-02f, -2.26211205e-01f, -1.54300243e-01f, -1.60736874e-01f, -7.46450853e-04f, -2.50691473e-01f, -9.77681130e-02f, -4.35566641e-02f, 6.05177209e-02f, -3.28108341e-01f, -1.43901557e-01f, 1.77619785e-01f, 1.67218566e-01f, -2.55119093e-02f, -2.80517280e-01f, -1.19198330e-01f, -3.81229185e-02f},
  {2.67290413e-01f, -3.14311832e-01f, 8.15434530e-02f, -1.83229819e-01f, -2.69665211e-01f, 1.22661293e-02f, 1.52473092e-01f, -2.44804919e-02f, -3.96515168e-02f, 7.90519789e-02f, -2.55952865e-01f, -1.39034111e-02f, -9.91003402e-03f, 2.73737401e-01f, 4.75008376e-02f, -1.07052185e-01f, 4.18438494e-01f, 1.13140633e-02f, -4.03302535e-02f, -7.34367445e-02f, 4.39802974e-01f, -1.05640188e-01f, -2.37801269e-01f, -3.78422737e-01f, -2.07701951e-01f, 1.44226372e-01f, 1.79453164e-01f, -4.13457274e-01f, -4.57551219e-02f, -2.73882836e-01f, 6.61182627e-02f, 3.22906710e-02f, -1.96908221e-01f, -8.15488771e-02f, -9.11995992e-02f, 2.36662462e-01f, 5.70051223e-02f, 2.25819856e-01f, 5.43064773e-02f, 1.28031179e-01f, -1.22680597e-01f, -6.49527088e-02f, 3.30751762e-02f, -6.10714033e-03f, -5.51175252e-02f, -9.57506150e-02f, 7.46056065e-03f, 2.41345406e-01f, 1.53237298e-01f, -3.97510231e-02f, 7.58042336e-02f, -2.33065665e-01f, 1.18434533e-01f, 1.04679421e-01f, 1.46689221e-01f, 5.38625009e-02f, 3.05421114e-01f, 7.19162598e-02f, -2.01511402e-02f, 2.18563616e-01f, -7.26438593e-03f, -1.91051766e-01f, 6.96818307e-02f, 1.02627752e-02f},
  {-8.55775550e-03f, -2.13437960e-01f, -2.61202455e-02f, -9.97003019e-02f, -2.02625468e-01f, -7.00596943e-02f, -1.65526271e-01f, 3.55608881e-01f, -2.87524670e-01f, -6.14796951e-02f, -2.34138723e-02f, -7.30017945e-02f, -4.36008006e-01f, 3.43514860e-01f, -6.09539151e-02f, 2.03014035e-02f, -6.14841618e-02f, 1.27608806e-01f, 1.63288787e-02f, 3.52921411e-02f, 3.07955723e-02f, -2.82116327e-02f, 8.00185651e-02f, 6.41096011e-02f, 1.16104528e-01f, 1.16842829e-01f, 1.28443480e-01f, -3.78828906e-02f, 3.28787602e-02f, 2.50832826e-01f, -3.03842425e-02f, -3.37081179e-02f, -1.02914467e-01f, 3.89000565e-01f, 4.28425930e-02f, -4.93189692e-02f, -1.92711368e-01f, -2.69393343e-02f, -1.23254340e-02f, -1.71144307e-01f, 1.34987175e-01f, -8.41301084e-02f, 9.13781002e-02f, -2.47802228e-01f, 1.10675372e-01f, 2.17131406e-01f, 2.01882407e-01f, 2.78096080e-01f, 7.84947574e-02f, -3.65338027e-01f, -1.12451635e-01f, 2.00222149e-01f, 3.58574837e-02f, -8.68807435e-02f, -8.50811973e-02f, -3.34932059e-02f, 1.16152972e-01f, 1.30132318e-01f, 2.48039290e-01f, -9.63870957e-02f, -1.76142633e-01f, 8.67594108e-02f, -1.75174475e-01f, 3.41673451e-03f},
  {1.24540240e-01f, -2.67519746e-02f, 7.98746049e-02f, 2.77612335e-03f, 1.88530117e-01f, -7.28341863e-02f, -2.82794088e-01f, 7.53817856e-02f, 5.07940017e-02f, -3.08028031e-02f, 8.70827138e-02f, 2.34005347e-01f, 1.21729642e-01f, 2.13054851e-01f, 1.43403724e-01f, 1.34076953e-01f, 1.78876042e-01f, -1.00561246e-01f, -4.04916525e-01f, 5.40174022e-02f, -1.68278188e-01f, 1.09794460e-01f, -1.66995436e-01f, 7.42964000e-02f, -1.72339715e-02f, -3.07762384e-01f, 4.19110268e-01f, 8.98944214e-02f, 1.45790935e-01f, -2.80048817e-01f, 9.62290168e-03f, 1.69041306e-02f, 1.37400270e-01f, -1.88505370e-03f, 1.12782523e-01f, -7.01870546e-02f, -3.23368996e-01f, -4.54652458e-02f, -2.20040664e-01f, -1.94866266e-02f, 3.35656703e-02f, 1.89690869e-02f, -4.28404436e-02f, -9.55720339e-03f, -2.10658666e-02f, 9.00023952e-02f, -1.51996478e-01f, 2.04147920e-01f, 2.09530756e-01f, -1.51465580e-01f, 1.54426590e-01f, -2.19740197e-01f, -3.86983067e-01f, 5.62754422e-02f, 6.13455512e-02f, 7.54077584e-02f, 3.80851209e-01f, -3.80332708e-01f, 7.05456436e-02f, -9.02961940e-02f, -2.08319668e-02f, -3.83551349e-03f, -1.72031522e-01f, -2.02664271e-01f},
  {-1.15645334e-01f, 1.41367331e-01f, -8.70273337e-02f, 1.63369507e-01f, 1.66886449e-01f, -1.18647605e-01f, 4.54267561e-02f, -2.25962177e-01f, 1.35678276e-01f, -5.66915646e-02f, -3.90233323e-02f, 1.55201688e-01f, -5.92011213e-02f, -1.63489684e-01f, -5.65763861e-02f, -3.22875082e-01f, 2.99015224e-01f, -2.10027657e-02f, 7.88930580e-02f, 1.20348595e-02f, 2.09559813e-01f, -1.90146118e-01f, 2.47928008e-01f, -1.62263699e-02f, -6.08276576e-02f, 2.66251594e-01f, 8.39978158e-02f, -5.56221977e-02f, 7.78659508e-02f, -1.06150387e-02f, -4.23292369e-02f, -2.34784901e-01f, -3.79210780e-03f, 2.08168343e-01f, -4.72813733e-02f, -4.50505346e-01f, -3.63033377e-02f, -1.54877901e-01f, 1.57086521e-01f, -8.72919634e-02f, 3.76908600e-01f, 3.02228749e-01f, 1.03545241e-01f, -8.71120468e-02f, -1.63413897e-01f, 1.54560819e-01f, -1.50022224e-01f, 5.49984694e-01f, 1.89802065e-01f, 1.59835845e-01f, -6.74661547e-02f, 9.19350460e-02f, -2.02888578e-01f, 1.01387873e-01f, -2.40803324e-02f, 2.21415937e-01f, -7.75310546e-02f, 3.69152546e-01f, -2.36147597e-01f, 1.14545658e-01f, 1.64297208e-01f, 8.86255130e-02f, -2.98208892e-01f, 2.76017822e-02f},
  {2.73826152e-01f, 5.16311899e-02f, -1.39595792e-01f, -9.31872725e-02f, 6.28349259e-02f, 7.52808526e-02f, 1.87275559e-01f, -5.65494178e-03f, -9.74396914e-02f, 2.67364308e-02f, 9.16860178e-02f, -6.58837007e-03f, 5.16891405e-02f, 4.91290074e-03f, -1.28267914e-01f, -1.51053622e-01f, -2.36937180e-01f, -1.11213438e-02f, -3.07582617e-01f, 1.45548925e-01f, 7.88812190e-02f, 2.22365841e-01f, 4.78751138e-02f, -3.16582769e-01f, 1.74450547e-01f, -3.04562896e-01f, -3.43055576e-02f, -1.49679735e-01f, 4.34233308e-01f, 7.68190101e-02f, -8.06051269e-02f, -1.19601510e-01f, 2.52456695e-01f, -2.01324627e-01f, 1.29182965e-01f, 1.38103575e-01f, 8.56535807e-02f, -1.13032041e-02f, -3.71300995e-01f, -5.92486337e-02f, 3.29355925e-01f, 3.09487991e-02f, -5.53384647e-02f, -1.70482755e-01f, 2.03005582e-01f, 3.59507143e-01f, 2.52581313e-02f, 3.65416519e-02f, 1.98866397e-01f, 8.80694538e-02f, -1.90529339e-02f, -1.21004723e-01f, 2.02301182e-02f, -1.47278041e-01f, -1.72062621e-01f, -2.37539977e-01f, 4.07679044e-02f, 2.24537626e-01f, 3.66460949e-01f, 2.05101833e-01f, 1.76842049e-01f, -7.73446858e-02f, 1.12610526e-01f, 1.02171555e-01f},
  {-2.88726151e-01f, -3.79634619e-01f, -3.89429897e-01f, -1.02419041e-01f, 5.47028817e-02f, 1.25469968e-01f, 1.13766544e-01f, -1.12602323e-01f, -1.19796149e-01f, 3.38495970e-01f, -1.50307968e-01f, 8.67736414e-02f, -2.55211174e-01f, 2.97450960e-01f, 4.25595611e-01f, 1.56937808e-01f, -3.64665061e-01f, 1.45430401e-01f, 2.73507059e-01f, -1.10306948e-01f, -1.15506789e-02f, 1.29551515e-01f, -3.53991419e-01f, -2.41859570e-01f, 4.49368805e-01f, 1.09514736e-01f, -2.85061449e-01f, -3.47193033e-01f, -4.93713953e-02f, 3.48667443e-01f, 3.47409934e-01f, -3.24541062e-01f, 3.12568218e-01f, -4.27240759e-01f, -6.80228770e-01f, 4.19449478e-01f, -1.97955109e-02f, 1.23957684e-02f, 3.30583602e-02f, 1.28335834e-01f, 2.06633955e-01f, 6.54154941e-02f, 3.56805861e-01f, 2.48720404e-02f, 2.21936375e-01f, 1.07611828e-01f, -4.41558868e-01f, -9.26400721e-02f, -9.73137394e-02f, -1.74405903e-01f, -2.40427665e-02f, -2.25644961e-01f, -2.17646614e-01f, 8.36760737e-03f, -2.37299860e-01f, 2.11081162e-01f, 7.50705227e-02f, -4.25034881e-01f, 3.00064027e-01f, -4.66420919e-01f, -5.72957285e-02f, -1.34703711e-01f, 1.50153860e-01f, -1.28624901e-01f},
  {1.13375776e-01f, -2.78438061e-01f, -2.38046646e-01f, 1.76357180e-02f, 7.23948926e-02f, -3.72747332e-01f, -4.77867872e-02f, 1.04244471e-01f, 2.84816865e-02f, 2.41291463e-01f, 1.97004840e-01f, -2.14456037e-01f, -3.07103425e-01f, 3.89124565e-02f, -2.99931377e-01f, -1.54716268e-01f, 4.24204543e-02f, 1.06028259e-01f, 1.21068634e-01f, -9.98015776e-02f, 3.14404666e-01f, -4.09529328e-01f, 1.63488105e-01f, 2.59541422e-01f, -3.88653018e-02f, 1.46547139e-01f, 5.49888164e-02f, 3.16018373e-01f, 3.75780463e-01f, 1.54222175e-01f, 2.14562379e-02f, -1.76875621e-01f, 1.44685000e-01f, -2.27804668e-02f, 1.70087650e-01f, -6.17148429e-02f, 6.42134622e-02f, 7.69403353e-02f, 2.06249848e-01f, 4.07562067e-04f, -7.21992180e-02f, -3.46653387e-02f, -7.70874098e-02f, 3.62840354e-01f, 9.18922666e-03f, 2.02668551e-02f, -1.04229979e-01f, -2.90365696e-01f, -7.76783973e-02f, -9.11246836e-02f, 5.04490323e-02f, -2.31072813e-01f, -1.24635287e-01f, -8.75808448e-02f, 7.88316801e-02f, -3.18234526e-02f, 1.09926991e-01f, -9.59437042e-02f, 8.16467926e-02f, 1.30649120e-01f, 1.92656159e-01f, 3.83057036e-02f, -3.31480019e-02f, -4.07580644e-01f},
  {-5.55347353e-02f, 1.40556410e-01f, -1.72970131e-01f, 4.37009819e-02f, 1.34405136e-01f, -2.89725456e-02f, -3.05135902e-02f, -6.54279366e-02f, -1.08607814e-01f, 2.81671733e-01f, 4.50088471e-01f, -1.15144387e-01f, 1.09177947e-01f, -1.83560669e-01f, -3.52270864e-02f, 2.50347070e-02f, 2.26818442e-01f, 6.40736073e-02f, 5.36303669e-02f, 1.09751746e-01f, -1.67507127e-01f, 7.97414109e-02f, -5.59106693e-02f, -1.55286670e-01f, 1.39728218e-01f, 1.67744190e-01f, 2.96153575e-01f, -9.82215926e-02f, 6.23224676e-02f, 1.66662082e-01f, -8.44716132e-02f, 1.98911712e-01f, 6.55768439e-02f, 1.70231760e-01f, -2.28097543e-01f, 1.59310207e-01f, -1.86253041e-01f, 4.34279740e-01f, -5.33713363e-02f, -5.23433924e-01f, -3.35721411e-02f, 1.91041842e-01f, -2.48807997e-01f, 1.64269701e-01f, -1.12862825e-01f, 9.42530781e-02f, 7.30335787e-02f, -2.05827683e-01f, -5.12737483e-02f, -8.10694918e-02f, 3.38668488e-02f, -1.66012511e-01f, 1.30128071e-01f, 1.43592164e-01f, 1.20419122e-01f, 1.45327508e-01f, -7.68586770e-02f, 2.86450908e-02f, 6.30600974e-02f, -2.63043851e-01f, 1.06157012e-01f, -1.71885658e-02f, -1.35180488e-01f, 2.30752870e-01f},
  {-3.99832934e-01f, 3.38575631e-01f, -2.49965549e-01f, 7.28444383e-03f, -9.56573561e-02f, 1.33956224e-01f, 3.26970965e-02f, 2.72068810e-02f, 1.74365684e-01f, 5.84018469e-01f, 1.24911904e-01f, -3.54659967e-02f, 1.31113380e-01f, 1.93094954e-01f, -1.62796035e-01f, 2.47251138e-01f, 1.13052763e-01f, 1.01654150e-01f, 1.09527469e-01f, 8.00534263e-02f, 1.78898592e-02f, 5.21750264e-02f, 8.25631171e-02f, 4.37021181e-02f, -2.84863953e-02f, -1.18982233e-02f, 1.51093639e-02f, 1.58130359e-02f, 2.45590005e-02f, -3.12517993e-02f, 6.51607141e-02f, -7.33681992e-02f, 2.84873575e-01f, -1.28958136e-01f, 2.85545200e-01f, 2.39555806e-01f, 2.82782800e-02f, -4.96194735e-02f, 7.88164660e-02f, 2.88210988e-01f, 3.38781595e-01f, -2.13454831e-02f, -6.32978901e-02f, -9.44799408e-02f, -1.98016331e-01f, -2.66099572e-01f, 2.13811710e-01f, -9.62967202e-02f, -1.70503147e-02f, -3.61783095e-02f, -2.55684286e-01f, 2.96038780e-02f, -5.80636524e-02f, 5.79325110e-02f, 2.91357994e-01f, -4.14752737e-02f, 3.00044000e-01f, 2.03159481e-01f, -7.64943287e-03f, 8.83766562e-02f, -2.03580305e-01f, 6.18006894e-03f, -4.84959967e-02f, 1.05578430e-01f},
  {9.82054025e-02f, -9.10909846e-02f, -1.33846432e-01f, 2.98870504e-02f, -8.53510499e-02f, -2.35048205e-01f, 1.00011557e-01f, -3.23488042e-02f, -7.38053489e-03f, -1.51748620e-02f, 1.65916502e-01f, 2.51401126e-01f, -5.38277477e-02f, -6.68520629e-02f, -8.47768225e-03f, -2.23410293e-01f, -5.60741834e-02f, -1.00352377e-01f, -8.62656068e-03f, 4.82455604e-02f, -3.45532954e-01f, -1.58031419e-01f, -2.62592822e-01f, -1.26370102e-01f, 8.55113193e-02f, 1.94615331e-02f, 2.08546519e-01f, -2.04865798e-01f, 1.35290429e-01f, -8.98943618e-02f, -2.48080865e-01f, -2.70310581e-01f, 2.83386350e-01f, 2.50844568e-01f, 1.52178422e-01f, -2.07963228e-01f, 2.22193837e-01f, -9.71219689e-02f, 4.01039235e-02f, 1.11538470e-02f, -1.20384403e-01f, 1.32196113e-01f, 9.39023346e-02f, 1.71126276e-01f, 1.32561520e-01f, -1.21115372e-01f, 1.68365300e-01f, 2.96522975e-01f, -3.83575529e-01f, 3.00701022e-01f, 2.22656149e-02f, 7.53642991e-02f, 4.64519024e-01f, 1.14919329e-02f, 2.89445221e-01f, 9.82621759e-02f, 1.25843301e-01f, -2.55754385e-02f, 3.27188596e-02f, -1.27676308e-01f, -3.75283539e-01f, -7.12297782e-02f, 1.23469338e-01f, -3.34346265e-01f},
  {-3.43055353e-02f, -1.33535201e-02f, 9.84982122e-03f, -9.40127485e-03f, -3.33337426e-01f, -1.82820693e-01f, -1.11858897e-01f, -1.51039690e-01f, 1.70796202e-03f, 2.55756170e-01f, -8.03107023e-02f, -1.51758313e-01f, 2.52281800e-02f, -3.41025114e-01f, 1.72059491e-01f, -1.47429168e-01f, 1.70845352e-02f, 9.29117128e-02f, -1.09570019e-01f, -1.86070606e-01f, -6.63485080e-02f, 8.23674202e-02f, 2.07621217e-01f, -5.69660887e-02f, 6.54659420e-02f, -4.31778878e-01f, -2.36783668e-01f, 4.53083366e-02f, -2.41720080e-01f, -2.36914083e-01f, 8.25138763e-02f, -2.30163008e-01f, -3.43474261e-02f, -3.82670411e-03f, 1.92419626e-02f, -1.22907326e-01f, -1.60210535e-01f, 1.76315427e-01f, 7.34387040e-02f, -2.34263748e-01f, 2.97692358e-01f, 2.63139307e-01f, 9.74239856e-02f, 1.76404536e-01f, -5.25311045e-02f, -2.24078640e-01f, 6.13555387e-02f, 3.17200311e-02f, 1.11619309e-01f, -3.17056209e-01f, -2.91630596e-01f, 2.15909749e-01f, 2.13133786e-02f, 1.15078084e-01f, -1.09086812e-01f, -2.53225356e-01f, -5.07257134e-02f, -4.09508735e-01f, 6.78675845e-02f, 1.71912655e-01f, -1.80017591e-01f, -1.62673086e-01f, 9.75477695e-02f, -6.83054477e-02f},
  {5.45877032e-03f, 3.87565255e-01f, 2.98670471e-01f, 2.94339680e-03f, -1.83994785e-01f, -1.20081373e-01f, -1.49515048e-01f, -9.58104134e-02f, 9.78711918e-02f, -1.01654343e-01f, 1.94932699e-01f, -3.71642224e-02f, 1.09222889e-01f, -5.06814532e-02f, -8.84425417e-02f, -6.12704502e-03f, -1.73369378e-01f, 1.69879764e-01f, 1.40518099e-01f, -8.74726102e-02f, 1.41037852e-01f, 1.21906653e-01f, 4.04450707e-02f, -1.20327927e-01f, 2.96997488e-01f, 1.03646614e-01f, 7.69263282e-02f, -3.13384295e-01f, -5.51409535e-02f, -1.73921436e-01f, 1.39896303e-01f, -1.96405739e-01f, -2.12304637e-01f, 2.72470564e-01f, 3.24177090e-03f, 2.33584866e-02f, 1.26381025e-01f, -1.14808075e-01f, -1.44825622e-01f, -4.58707288e-02f, 1.58578143e-01f, -3.12285185e-01f, -5.39235771e-02f, 1.97271839e-01f, 9.49300826e-02f, 2.37982973e-01f, -1.58549964e-01f, 6.47360212e-05f, -2.84808278e-01f, -2.18476310e-01f, 1.26574010e-01f, -1.36376858e-01f, -2.52587289e-01f, 7.03254417e-02f, 3.23413052e-02f, -2.09070370e-01f, -5.75593300e-03f, 1.23588882e-01f, -5.04937433e-02f, -8.19139779e-02f, 1.24486133e-01f, -3.66102308e-01f, 7.56986067e-02f, -2.45660231e-01f},
  {2.54516806e-02f, -8.89764167e-03f, -4.54994179e-02f, -2.87720829e-01f, -9.10364315e-02f, -6.98382854e-02f, -5.50283603e-02f, 1.48928121e-01f, 8.17651078e-02f, -9.26528722e-02f, -2.02552661e-01f, 3.11142385e-01f, 2.22009748e-01f, -3.64728868e-01f, -2.50504076e-01f, -9.97839570e-02f, 4.22101915e-02f, -1.48868710e-01f, -2.47371439e-02f, 1.74833089e-01f, -2.30672807e-01f, -5.54237776e-02f, 2.93119162e-01f, 3.68382707e-02f, -1.75462442e-03f, 2.36347988e-01f, 6.94638511e-05f, -1.60705864e-01f, 1.48973376e-01f, 7.95029178e-02f, 3.21786195e-01f, 3.61093096e-02f, -1.90635845e-02f, -2.31352612e-01f, 1.87974378e-01f, 1.37353644e-01f, -3.42568249e-01f, 5.70483357e-02f, 2.20107943e-01f, -3.73534225e-02f, -4.13234606e-02f, -1.04762249e-01f, -2.02030122e-01f, 1.84562653e-01f, -9.50505864e-03f, -2.17585430e-01f, -1.88033044e-01f, 2.88712233e-01f, 8.66791829e-02f, -7.48168528e-02f, -1.18905820e-01f, -3.55534285e-01f, -1.73135158e-02f, -3.87945384e-01f, 4.37381156e-02f, -1.72132790e-01f, -3.90033394e-01f, 1.08286686e-01f, 2.68645324e-02f, -7.00474232e-02f, -2.97869831e-01f, -6.33478761e-02f, 4.78953309e-02f, 1.33076653e-01f},
  {1.62947923e-01f, -7.99250007e-02f, 9.65657365e-03f, 3.72031718e-01f, 2.23737881e-01f, -1.94245186e-02f, 9.83444825e-02f, -1.11044645e-01f, 1.89357802e-01f, -6.65999129e-02f, -2.02711567e-01f, -1.13514587e-01f, 9.78110060e-02f, -6.39956892e-02f, 4.28076088e-02f, 2.08648294e-01f, 6.56627268e-02f, -2.22952664e-01f, 2.83397138e-01f, -3.58828902e-01f, -4.10086066e-01f, 1.95747644e-01f, 1.69113681e-01f, -1.60568431e-01f, -1.11828506e-01f, 1.76314022e-02f, 9.93283540e-02f, 2.17316583e-01f, -1.27106635e-02f, 6.00790605e-02f, 8.68833140e-02f, 9.35692042e-02f, -9.77912620e-02f, -9.27767903e-02f, 2.83598602e-01f, 2.24050343e-01f, -3.32775749e-02f, 9.11185369e-02f, 7.43175521e-02f, 1.46445394e-01f, -1.86408848e-01f, 1.13765210e-01f, 2.53018625e-02f, 3.47125560e-01f, -6.29584640e-02f, 4.14864600e-01f, -2.19401285e-01f, 2.37904951e-01f, -7.80024827e-02f, -1.72870368e-01f, -4.35697883e-01f, 3.97179157e-01f, 4.35165651e-02f, -3.34845036e-01f, 1.91360831e-01f, 9.64477360e-02f, 1.00726843e-01f, 1.82549685e-01f, 7.61897117e-02f, 2.16863398e-02f, 9.21827480e-02f, -2.14939922e-01f, 1.51892677e-01f, 4.76520509e-02f},
  {1.51320219e-01f, -2.90642768e-01f, -7.56485015e-02f, 1.73675016e-01f, 3.66975904e-01f, 2.91218255e-02f, 1.08399093e-02f, 1.20077759e-01f, -3.52318436e-01f, 3.65281105e-01f, -2.05829605e-01f, -2.65167356e-01f, -1.62062511e-01f, -4.26852982e-03f, 3.65494698e-01f, -1.68804452e-01f, -1.93617031e-01f, -5.01939952e-02f, -5.55892996e-02f, 2.73655444e-01f, -7.00549558e-02f, 2.05785349e-01f, 5.37271192e-03f, 3.56361941e-02f, 4.71400291e-01f, 2.12117076e-01f, -1.06301218e-01f, -7.08111003e-02f, -2.11720735e-01f, -1.39110014e-01f, -4.30514216e-02f, 6.47139177e-02f, 2.60561824e-01f, 1.58311233e-01f, -4.19194490e-01f, 2.61387706e-01f, 1.52338207e-01f, 2.41716832e-01f, 1.76963210e-01f, -5.31634549e-03f, 2.33454823e-01f, 2.52019204e-02f, -1.15447946e-01f, -1.52155891e-01f, 2.15528890e-01f, -1.19917430e-01f, -1.37894392e-01f, -1.74937323e-01f, 1.94180906e-01f, -8.01290199e-02f, 2.02972770e-01f, -5.30057065e-02f, -2.08560467e-01f, -2.89227337e-01f, 1.27804130e-01f, -2.84673590e-02f, 2.53853619e-01f, 1.67673409e-01f, -1.80609360e-01f, 9.38321799e-02f, -1.76410347e-01f, -1.09132290e-01f, 4.54329431e-01f, -1.98575094e-01f},
  {1.58872768e-01f, -4.01037112e-02f, -9.20714140e-02f, 2.63349712e-01f, 1.24868508e-02f, 3.03314358e-01f, -4.26301450e-01f, 1.71072930e-01f, 1.58492759e-01f, 2.16684505e-01f, -5.28995022e-02f, 9.21136439e-02f, -1.73645213e-01f, -1.26395747e-01f, 1.08263098e-01f, -8.95107538e-02f, 1.60146616e-02f, 1.91060305e-01f, -1.84465051e-01f, -5.38374577e-03f, -9.31432322e-02f, 4.39903177e-02f, 3.27086896e-02f, -7.23666400e-02f, 2.26261206e-02f, 3.37107569e-01f, -1.77270681e-01f, 2.10253727e-02f, -1.09821960e-01f, -2.42766440e-01f, 1.21563375e-01f, 1.78737998e-01f, 2.58206844e-01f, -1.81085140e-01f, -1.67735100e-01f, -1.25981688e-01f, -5.75287379e-02f, -1.31097987e-01f, -1.58796787e-01f, 1.71924174e-01f, 2.87143188e-03f, -1.65132537e-01f, 1.87932737e-02f, 2.19158188e-01f, -1.41677231e-01f, 3.46161932e-01f, 1.07576564e-01f, 1.22082137e-01f, -3.68641406e-01f, -1.08580463e-01f, 1.48843303e-02f, -1.37743697e-01f, 1.31585300e-01f, 3.39009732e-01f, 7.89198875e-02f, -1.64395481e-01f, -1.34693250e-01f, 7.73887336e-02f, 1.28641903e-01f, 2.51070440e-01f, -3.53783816e-02f, 2.91117519e-01f, 9.22597274e-02f, 1.15940355e-01f},
  {-1.13547049e-01f, -1.98271066e-01f, 3.85594785e-01f, 1.03556164e-01f, 1.30030975e-01f, 4.36390601e-02f, 1.97768062e-01f, 6.03979491e-02f, -2.20124036e-01f, 9.59055871e-02f, -6.01214468e-02f, -1.14983328e-01f, 3.13367516e-01f, 2.67447140e-02f, 1.25429466e-01f, -2.44957078e-02f, -2.90288012e-02f, 1.50433540e-01f, -1.71091899e-01f, 6.81166798e-02f, 2.69147336e-01f, -2.40281835e-01f, -1.05515040e-01f, 2.70934612e-01f, 8.20781589e-02f, 1.64876044e-01f, -1.26620978e-01f, 8.22701529e-02f, -3.87084335e-02f, -1.26100823e-01f, 7.59734139e-02f, 5.51554225e-02f, 8.41482431e-02f, -1.14511266e-01f, 1.93353996e-01f, 1.23411514e-01f, -1.70454711e-01f, 2.49338284e-01f, 2.66657192e-02f, -2.35134661e-01f, -1.76567152e-01f, 2.52144672e-02f, -6.25711158e-02f, -1.16821006e-02f, 1.88414205e-03f, 1.83168370e-02f, -8.64192024e-02f, 3.30114961e-01f, -4.29188132e-01f, 2.71803707e-01f, -1.50830224e-01f, 2.88264930e-01f, -2.71404088e-01f, 1.79096788e-01f, 8.62606168e-02f, -1.18209131e-01f, -1.09955430e-01f, 3.41157839e-02f, 4.24834996e-01f, -6.48869621e-03f, -7.41956979e-02f, -8.95232428e-03f, -9.56519321e-02f, 2.69543063e-02f},
  {3.97688486e-02f, 3.64513874e-01f, 8.69026184e-02f, -3.17891464e-02f, 3.47050577e-02f, -4.33041267e-02f, -1.68947756e-01f, -9.86956283e-02f, -2.24614352e-01f, 2.02700987e-01f, 4.52934727e-02f, 1.29937261e-01f, -3.04116726e-01f, -1.38692893e-02f, 3.51276733e-02f, -2.11587191e-01f, -1.63218826e-02f, -3.27427000e-01f, -8.04073364e-02f, -2.27839068e-01f, -1.03938416e-01f, -1.56447023e-01f, -3.57232034e-01f, -4.92757708e-02f, 1.89928934e-01f, 1.32637382e-01f, -2.24368423e-02f, 3.40635963e-02f, 3.11106712e-01f, -1.12385012e-01f, 1.44189820e-01f, 7.17137158e-02f, -1.51906818e-01f, -1.25783816e-01f, 3.60133767e-01f, 1.75297827e-01f, 1.41088292e-01f, 2.11689204e-01f, 5.06352931e-02f, 2.31568119e-03f, -1.21950857e-01f, 1.41027525e-01f, 3.84143382e-01f, -9.00368020e-02f, -3.97775412e-01f, -1.40354276e-01f, 2.47612372e-02f, 1.49223218e-02f, 2.07208283e-02f, -1.95141315e-01f, 2.76068747e-01f, 9.68587771e-02f, -4.07480448e-02f, -1.04103372e-01f, -1.22305557e-01f, -2.51566619e-02f, -1.24262080e-01f, 1.33673819e-02f, 1.67195871e-01f, 3.46486792e-02f, 1.67272344e-01f, 1.70076694e-02f, 1.76555589e-01f, 5.11510558e-02f},
  {1.50725752e-01f, -1.08347207e-01f, -1.10160932e-01f, 5.47743626e-02f, 1.03525862e-01f, -1.26172215e-01f, 1.32134512e-01f, 1.36351421e-01f, 6.23218454e-02f, -8.84909183e-02f, -2.70817671e-02f, -6.28766865e-02f, 6.38136715e-02f, 6.71267062e-02f, 1.01820178e-01f, 1.77539781e-01f, -5.04013300e-02f, 2.04217210e-01f, -2.56028436e-02f, 4.16680276e-02f, 3.34848575e-02f, 3.86651456e-01f, -1.16833568e-01f, -3.05536956e-01f, -2.38754362e-01f, 2.39110380e-01f, -2.44696662e-01f, 7.32747912e-02f, 1.58856772e-02f, 2.55967617e-01f, 3.17368768e-02f, -1.48805067e-01f, -2.61901647e-01f, -9.96210575e-02f, 4.00172740e-01f, -9.14361142e-03f, 1.02976628e-01f, 1.32498592e-01f, -4.31151614e-02f, -3.45671833e-01f, 2.30608031e-01f, 1.27354354e-01f, 6.47335574e-02f, 1.79143280e-01f, -1.74251392e-01f, 1.73025001e-02f, 1.32829428e-01f, -1.06070086e-01f, -1.67568401e-01f, 1.99016258e-01f, 1.72981307e-01f, -6.13080859e-02f, -1.82348669e-01f, -2.90294085e-02f, 3.17095662e-04f, -3.33115846e-01f, 7.49973059e-02f, 1.05802849e-01f, -1.00738458e-01f, -2.32804492e-01f, -4.20617670e-01f, 1.70306358e-02f, -1.78594720e-02f, 6.83586970e-02f},
  {1.76935196e-02f, -1.00268699e-01f, -1.53599247e-01f, 5.53095266e-02f, 1.71994001e-01f, -5.53665124e-02f, -1.92195043e-01f, 8.08198005e-02f, -3.65981966e-01f, 8.10734853e-02f, 7.19989985e-02f, -1.97385773e-01f, 1.34791493e-01f, -8.72203261e-02f, 1.50342077e-01f, 2.50589192e-01f, 2.82384027e-02f, 2.43090436e-01f, -1.64486527e-01f, 2.12015077e-01f, -2.18107887e-02f, -9.01830569e-02f, 4.71494310e-02f, -2.11631805e-01f, -2.12929826e-02f, 1.00634096e-03f, 1.22909009e-01f, -2.71710157e-01f, 2.32899800e-01f, -1.19360164e-02f, 3.06348503e-01f, -2.65059294e-03f, -1.58661112e-01f, -9.41723660e-02f, 2.05924716e-02f, -3.28962535e-01f, 1.22792698e-01f, 9.49423611e-02f, -3.22687253e-02f, 7.54224882e-02f, -1.29056111e-01f, -2.05140650e-01f, 4.78425592e-01f, 3.05363536e-02f, 7.70932063e-02f, -7.65506998e-02f, -2.94442147e-01f, -1.10015050e-01f, 1.13765240e-01f, 2.58772552e-01f, -7.80086890e-02f, 1.32704005e-01f, 1.71224609e-01f, -3.64313610e-02f, 2.32849479e-01f, -2.12438181e-01f, 1.70827463e-01f, -6.46708682e-02f, -3.37867618e-01f, 1.75032064e-01f, 2.55680501e-01f, 2.47656507e-03f, -3.61916602e-01f, 5.27956262e-02f},
  {1.67414621e-01f, -1.26982138e-01f, -2.79817373e-01f, -6.86168596e-02f, -8.34861323e-02f, 1.34536058e-01f, -4.14828584e-02f, 4.92565781e-02f, 1.70481831e-01f, 7.16620162e-02f, -1.53740332e-01f, 1.71522513e-01f, 1.40480682e-01f, -5.73457256e-02f, 1.56208023e-01f, -3.13356787e-01f, -9.56887603e-02f, 2.41430447e-01f, 5.93644857e-01f, -2.02030703e-01f, -7.48630688e-02f, 1.39964312e-01f, 1.71261221e-01f, 1.97770193e-01f, -1.01925861e-02f, -1.38423368e-01f, 2.47620612e-01f, -1.86877564e-01f, -2.84556206e-02f, 2.43189596e-02f, -2.04995945e-01f, -4.71625365e-02f, 8.94307569e-02f, -2.81713933e-01f, 2.48731643e-01f, -1.96451351e-01f, 1.29483163e-01f, 1.37674153e-01f, 6.78608865e-02f, -3.92644197e-01f, -1.17909193e-01f, -2.82260150e-01f, -1.45714670e-01f, -1.95025072e-01f, -1.75479025e-01f, 8.51704702e-02f, 1.48028985e-01f, 1.68193638e-01f, -1.20697893e-01f, -1.18017830e-01f, 2.43851975e-01f, 1.07146859e-01f, -1.81536943e-01f, -3.44475992e-02f, -4.38355394e-02f, 9.37976018e-02f, 1.20249003e-01f, -2.29204923e-01f, -1.52956992e-01f, 6.48439378e-02f, 2.00016841e-01f, 4.02809493e-02f, 1.10894695e-01f, 1.39212489e-01f},
  {-4.22708273e-01f, 2.07696930e-02f, -3.52933824e-01f, -2.08485022e-01f, 3.81887376e-01f, -1.05647244e-01f, -1.21216148e-01f, -7.81249776e-02f, -1.06131807e-01f, -3.24829131e-01f, -1.34188473e-01f, -2.38236293e-01f, 1.24796234e-01f, 5.42120397e-01f, -2.58839101e-01f, -5.98894549e-04f, -6.93946555e-02f, -1.36170775e-01f, 1.13083585e-03f, 1.51021197e-01f, -3.20592910e-01f, -3.04360855e-02f, 2.05405995e-01f, -3.74545723e-01f, 1.14789084e-01f, 3.13428432e-01f, -1.31410331e-01f, -7.08842129e-02f, -8.84156376e-02f, -3.07080388e-01f, -6.04547001e-02f, -4.37991381e-01f, 1.58762801e-02f, -1.31485388e-01f, -3.70823115e-01f, 3.60938385e-02f, -1.86739862e-01f, 9.15090069e-02f, 3.36132407e-01f, -2.48076648e-01f, -5.81383817e-02f, -7.05928206e-02f, -2.00889096e-01f, 2.83364415e-01f, 9.90828052e-02f, -1.33418888e-01f, -8.99420232e-02f, 3.39082889e-02f, -1.93144113e-01f, -9.46220234e-02f, 4.47611898e-01f, 4.63386238e-01f, 7.57737160e-02f, -1.12172998e-01f, -1.52252629e-01f, 4.80633937e-02f, 3.64906937e-01f, -1.00569442e-01f, 2.62561917e-01f, 2.38616288e-01f, 1.48950636e-01f, 2.49609381e-01f, 3.61549824e-01f, -3.30335163e-02f},
  {-1.21437594e-01f, -7.92077109e-02f, 4.23121303e-01f, -2.84660399e-01f, 1.86343685e-01f, 2.30086111e-02f, -1.31347835e-01f, -9.66703147e-02f, 2.46388555e-01f, 7.91935623e-02f, -2.91004121e-01f, -3.34286422e-01f, 1.45329073e-01f, 2.00507432e-01f, 2.99696147e-01f, -2.76136070e-01f, -3.25377345e-01f, 3.04378659e-01f, -1.15437604e-01f, 1.93602309e-01f, -2.36858830e-01f, -2.87854046e-01f, -1.05133675e-01f, 1.58333465e-01f, -4.39493880e-02f, -3.66073728e-01f, -9.45416838e-02f, -3.17927361e-01f, 1.37383536e-01f, 2.07018897e-01f, 2.64720142e-01f, 2.61815697e-01f, 2.74058849e-01f, -4.01284784e-01f, -1.03396267e-01f, 8.83930475e-02f, 1.51123539e-01f, 1.83577418e-01f, -8.40512142e-02f, -2.02900711e-02f, 4.99165446e-01f, -4.94036190e-02f, 1.02961056e-01f, 2.56852686e-01f, 1.26928473e-02f, 1.19944699e-01f, 2.84733921e-01f, -2.25556374e-01f, -1.13064826e-01f, -3.82621050e-01f, -4.96244952e-02f, 8.66211727e-02f, 1.19826391e-01f, -4.09213066e-01f, -2.21629381e-01f, 1.59039780e-01f, -6.17021248e-02f, 9.71332118e-02f, -2.32263863e-01f, -2.12435320e-01f, -2.07399473e-01f, -5.84049448e-02f, -2.81469703e-01f, 5.30602410e-02f},
  {-2.79297214e-02f, 9.18483362e-03f, -1.79654002e-01f, 8.99673328e-02f, 8.93155038e-02f, -4.59632277e-03f, 4.10018682e-01f, 3.55890661e-01f, 1.08970150e-01f, -1.07424200e-01f, 3.40724736e-02f, 1.41304642e-01f, 3.49555910e-01f, 9.15909931e-02f, -9.87432152e-02f, -2.20779359e-01f, -2.82599419e-01f, -1.59319162e-01f, 1.15559399e-01f, 4.91370022e-01f, -3.37982625e-01f, -4.99566197e-01f, 1.44639328e-01f, -5.66141400e-03f, -1.23248072e-02f, -1.55786783e-01f, -1.58181325e-01f, -2.71436095e-01f, -5.13149381e-01f, -6.73323944e-02f, 3.87885831e-02f, -1.52161922e-02f, -1.46070510e-01f, -1.89111710e-01f, 1.45236328e-01f, -3.57349999e-02f, -3.50530911e-03f, 3.99411060e-02f, 2.80426294e-01f, 4.81682792e-02f, 2.91145835e-02f, 1.69973820e-01f, 3.47363874e-02f, 2.54509717e-01f, -2.90371478e-01f, 3.77542406e-01f, -5.13103157e-02f, -1.43854350e-01f, 3.89764667e-01f, -3.56902301e-01f, 2.15596288e-01f, 1.96293145e-01f, 1.38944402e-01f, 1.99812889e-01f, 1.82365075e-01f, -1.83867410e-01f, 2.11637601e-01f, 8.31983164e-02f, 2.60524035e-01f, -1.10070042e-01f, 2.29737818e-01f, 3.12103704e-02f, -2.02882200e-01f, -2.41397306e-01f},
  {-2.75476813e-01f, -1.15880616e-01f, 3.26598078e-01f, 9.51063484e-02f, 7.70166591e-02f, -6.57492802e-02f, -3.16055179e-01f, 2.32882634e-01f, 2.38070026e-01f, -2.50827253e-01f, 5.24137318e-01f, 5.34567330e-03f, 1.89423531e-01f, 8.41721222e-02f, 3.01470488e-01f, -2.49857724e-01f, 1.30414277e-01f, 3.51414144e-01f, 3.06611896e-01f, 1.25098512e-01f, -1.80826098e-01f, 1.49424784e-02f, 7.01876059e-02f, 1.04037430e-02f, -1.18089028e-01f, 5.80662899e-02f, -2.65981317e-01f, -2.06814017e-02f, -1.61693469e-02f, -6.53414577e-02f, -3.82844470e-02f, -3.89389127e-01f, -1.02949746e-01f, -1.52150914e-01f, 2.45603457e-01f, 2.62618124e-01f, -3.05426996e-02f, 1.05638197e-02f, -4.92314110e-03f, 2.72908002e-01f, -2.99213022e-01f, 3.56064707e-01f, -1.85367376e-01f, 5.69211841e-02f, 5.56926243e-02f, 2.12318048e-01f, 5.60308388e-03f, 8.09608549e-02f, 3.59814167e-01f, 5.66229932e-02f, 1.05394110e-01f, 5.34250699e-02f, 1.16450511e-01f, -1.86322600e-01f, -7.40882978e-02f, 2.32309207e-01f, -5.13907522e-02f, -2.90825441e-02f, -5.19060111e-03f, 2.61118501e-01f, -5.51161692e-02f, -4.04781327e-02f, 1.11560740e-01f, -1.12658270e-01f},
  {2.66724247e-02f, 9.66299474e-02f, -6.33478090e-02f, -3.28178704e-01f, -9.70599279e-02f, -1.16670169e-01f, -1.13713607e-01f, 1.14156693e-01f, -5.39740883e-02f, -1.67684570e-01f, -2.04613488e-02f, -1.86094999e-01f, -2.81730473e-01f, -1.93284363e-01f, 2.45655790e-01f, -6.26149699e-02f, 1.70913577e-01f, -2.50524879e-01f, -9.70052555e-02f, -1.22700371e-02f, 1.22921266e-01f, -8.65199864e-02f, 1.52515650e-01f, -8.41526464e-02f, 1.57099113e-01f, -2.09679410e-01f, 2.86602587e-01f, 7.38229230e-02f, -7.91660175e-02f, -3.22729796e-02f, 1.59946196e-02f, -2.06466496e-01f, -2.79397778e-02f, -3.03810924e-01f, 1.83583647e-02f, 1.34815633e-01f, -3.31209838e-01f, -2.51462281e-01f, 5.27327120e-01f, -1.47916839e-01f, -1.75169930e-01f, 2.33035818e-01f, -8.43616351e-02f, -1.10280760e-01f, -2.30522230e-02f, 3.90020311e-01f, 1.90249413e-01f, -2.36441672e-01f, -2.78134584e-01f, 2.88763463e-01f, -5.85490512e-03f, -2.62146331e-02f, 4.77798991e-02f, 2.05185935e-01f, 1.90299947e-03f, -6.91062212e-02f, 2.68525571e-01f, 3.23964775e-01f, -2.32255474e-01f, -6.72443584e-02f, -1.32660363e-02f, 4.81468327e-02f, -5.41769192e-02f, -9.51632410e-02f},
  {-1.70769721e-01f, 8.79254416e-02f, -2.12686951e-04f, 1.00814082e-01f, 1.61346775e-02f, -4.33855020e-02f, -1.76066130e-01f, -1.39003739e-01f, 3.14464234e-02f, -3.27765077e-01f, 5.51577769e-02f, -5.57723977e-02f, -4.00021076e-02f, -7.02070221e-02f, -5.97291179e-02f, -8.87727086e-03f, 1.93723023e-01f, -1.24668919e-01f, 4.26428914e-02f, -1.40094817e-01f, -5.36351837e-02f, -2.58025348e-01f, -7.11961137e-03f, -1.09875999e-01f, 9.09740254e-02f, 1.77803468e-02f, -2.28258923e-01f, 1.07486628e-01f, -1.82289466e-01f, 9.82499942e-02f, -7.79490024e-02f, 5.03085256e-02f, 2.58884072e-01f, -2.57392049e-01f, -5.57123981e-02f, 3.41001153e-01f, 9.61674657e-03f, 7.99649432e-02f, -1.13576569e-01f, -3.26222330e-01f, -3.23348902e-02f, -4.49168801e-01f, 9.24691409e-02f, -9.81837735e-02f, 7.26104006e-02f, -1.14872739e-01f, 2.63789356e-01f, 3.09217423e-01f, 1.75099447e-01f, 2.99989194e-01f, -1.55622149e-02f, -8.04976095e-03f, -6.35594968e-03f, -9.39831138e-02f, 1.82972476e-01f, -1.69812217e-01f, 8.07458237e-02f, -4.48512174e-02f, -2.10042465e-02f, -5.26335947e-02f, 1.65759474e-01f, -2.82414109e-01f, -2.75736541e-01f, -2.24417627e-01f},
  {-2.27452651e-01f, -3.00264627e-01f, 2.49153003e-01f, 9.69148278e-02f, 2.77482327e-02f, -3.39013003e-02f, -1.23819314e-01f, 4.23528403e-02f, -2.21610710e-01f, 3.06135595e-01f, -8.88277367e-02f, 1.76189736e-01f, -3.02792698e-01f, 1.36146575e-01f, -2.85081059e-01f, 5.34466244e-02f, -3.25466901e-01f, -1.59570321e-01f, -1.35014430e-01f, -8.95693749e-02f, -3.34901273e-01f, -4.29255888e-03f, -1.46388218e-01f, 3.13171238e-01f, -2.38650918e-01f, 1.88594479e-02f, -2.92650331e-02f, -1.23245530e-01f, -1.63976178e-01f, -9.86495316e-02f, 4.21991825e-01f, -1.68613672e-01f, -3.92461196e-02f, -1.35183036e-01f, -2.49583676e-01f, 3.27396914e-02f, 3.49379987e-01f, -3.45005579e-02f, -1.84978932e-01f, -2.41970330e-01f, 2.40188912e-01f, 6.90124109e-02f, -2.05724001e-01f, -1.32656679e-01f, -2.32651770e-01f, 1.57889768e-01f, -1.30929619e-01f, -2.80325562e-02f, 6.27441481e-02f, 1.56096220e-01f, -3.21719563e-03f, -1.96550399e-01f, -9.54249222e-03f, 5.84992506e-02f, -9.78096426e-02f, 3.52461115e-02f, 3.05380255e-01f, 9.74112228e-02f, -2.32140005e-01f, -1.08112730e-01f, 2.58316249e-02f, -2.84931839e-01f, -4.68649678e-02f, 5.87703623e-02f},
  {-2.33581528e-01f, -1.81347683e-01f, -1.91535532e-01f, -2.00665474e-01f, 2.47485861e-01f, -1.68379366e-01f, -1.83123723e-01f, 3.92729700e-01f, -2.25037202e-01f, -6.58856481e-02f, -1.06759429e-01f, 1.19998567e-01f, 2.23912537e-01f, -1.33464754e-01f, -2.66988575e-01f, -6.91643283e-02f, 4.58627880e-01f, 1.53951570e-01f, 8.60443711e-02f, -4.77465749e-01f, -6.84545860e-02f, -8.79862830e-02f, -1.12259135e-01f, -1.30395666e-01f, 1.90332085e-01f, -5.47295846e-02f, -1.89524770e-01f, -1.46790594e-01f, -5.08653373e-02f, -7.33226463e-02f, -1.24459229e-02f, 2.19408929e-01f, 4.53294218e-02f, 7.28795454e-02f, 2.09341690e-01f, -1.04309306e-01f, 1.62202224e-01f, -2.50169247e-01f, -6.77722618e-02f, 6.82210401e-02f, 5.81201306e-03f, 2.04367772e-01f, -1.50943190e-01f, -2.55597234e-01f, -2.00637542e-02f, -2.46660970e-02f, -1.41577646e-01f, -1.83360144e-01f, -1.38201922e-01f, -5.17307669e-02f, 4.27725129e-02f, 1.47200033e-01f, -6.39975667e-02f, -6.82559907e-02f, -6.66800290e-02f, -1.11684807e-01f, -3.41849052e-03f, 4.76500466e-02f, 1.47908732e-01f, 2.76904572e-02f, -1.31021529e-01f, -2.89809018e-01f, -1.60186797e-01f, 1.12162262e-01f},
  {1.12769328e-01f, 9.23097432e-02f, 6.69557825e-02f, -2.14964524e-01f, 9.19649377e-02f, -2.78748386e-02f, 1.27884686e-01f, 1.24154828e-01f, 5.61407745e-01f, 1.04463592e-01f, 6.09077029e-02f, -3.39725673e-01f, 1.99766681e-02f, 2.22508624e-01f, -1.46150917e-01f, -7.99587592e-02f, 3.54865760e-01f, -3.14450324e-01f, 2.45015368e-01f, 1.89918637e-01f, -2.74099886e-01f, -1.13807190e-02f, 2.35409811e-02f, 2.27818832e-01f, -8.25795680e-02f, 3.74537021e-01f, -7.14085773e-02f, -2.80417293e-01f, -8.57694224e-02f, -3.41045290e-01f, -3.70117538e-02f, 2.65858456e-04f, 9.49928910e-03f, -2.32896715e-01f, 9.36742201e-02f, 1.23640612e-01f, 9.37894806e-02f, -3.23221199e-02f, 2.63967246e-01f, -1.46438807e-01f, 2.27534920e-01f, 4.20064747e-01f, 1.69963166e-01f, 1.36271015e-01f, 5.57034254e-01f, 2.44567648e-01f, -3.20580691e-01f, -8.32955167e-02f, 8.30583423e-02f, -7.49800028e-03f, 2.40559176e-01f, 2.70831257e-01f, 2.18399853e-01f, -5.75739071e-02f, -1.95070744e-01f, -2.63611913e-01f, 1.47984236e-01f, -2.82806277e-01f, 1.65759206e-01f, -1.87436387e-01f, -1.00613548e-03f, 2.11243421e-01f, 3.67631577e-02f, 9.68517363e-02f},
  {-1.73127964e-01f, -1.96358517e-01f, 4.01172727e-01f, 1.99490562e-01f, -5.53444140e-02f, -2.97095090e-01f, 9.37776715e-02f, 3.00820339e-02f, 1.46069244e-01f, 4.71227437e-01f, -1.98752552e-01f, 1.74201168e-02f, -2.02017203e-01f, -8.20803195e-02f, -2.80654579e-01f, 3.80252823e-02f, 1.51473239e-01f, 2.19626166e-02f, 1.02106027e-01f, 3.45489353e-01f, -2.66515136e-01f, 2.96116710e-01f, 7.93247223e-02f, -2.16488048e-01f, 1.67734280e-01f, -6.10689446e-02f, -1.07663542e-01f, -8.49236920e-02f, -1.79729126e-02f, -2.29234938e-02f, -2.58385926e-01f, 4.59665619e-02f, 2.86917277e-02f, -1.38731748e-02f, 6.45718873e-02f, 9.22731310e-02f, -8.13401192e-02f, -1.84691429e-01f, 1.33254081e-01f, 8.79100785e-02f, -1.28199279e-01f, -1.32085130e-01f, 3.46635669e-01f, -4.35788147e-02f, 8.86099786e-02f, 8.84343833e-02f, 2.63134331e-01f, -5.07692136e-02f, -5.81176095e-02f, 8.89953524e-02f, 1.46430314e-01f, -1.27200052e-01f, -1.43498018e-01f, -3.68214175e-02f, -7.94473514e-02f, -1.91064533e-02f, -6.82128146e-02f, -1.35425970e-01f, 7.64064491e-02f, 1.22207008e-01f, 2.40337253e-01f, -1.48629084e-01f, -1.99926272e-01f, 1.45342872e-01f},
  {3.37961572e-03f, 1.78645447e-01f, 2.38576725e-01f, 1.60063043e-01f, -2.85731524e-01f, 6.44357968e-03f, -7.64288157e-02f, -1.74587891e-01f, -2.06408873e-02f, -4.45822105e-02f, -1.43884301e-01f, 7.43677840e-02f, -2.82404367e-02f, 1.42141357e-01f, -4.17195484e-02f, 1.30696118e-01f, 1.91573352e-02f, 1.04766041e-01f, -4.05668691e-02f, -3.54826041e-02f, -6.76139782e-04f, -1.56282127e-01f, -1.98163763e-01f, -7.43373111e-02f, -2.87862904e-02f, 2.43153676e-01f, 8.96389174e-05f, -4.31517586e-02f, 1.04119189e-01f, 2.13785380e-01f, -1.88559324e-01f, 1.01126626e-01f, 3.46637070e-01f, -3.44919115e-01f, -6.58464525e-03f, -4.89422560e-01f, -1.57755509e-01f, -2.59764075e-01f, 2.15060607e-01f, -2.14955389e-01f, -1.03092246e-01f, 1.20900504e-01f, -1.45713747e-01f, -8.32099915e-02f, 1.70512512e-01f, 1.61564484e-01f, -1.65208191e-01f, -3.05818796e-01f, 2.19523624e-01f, -1.84959769e-01f, 7.86122307e-02f, 1.65957853e-01f, -7.02499673e-02f, -6.46598637e-02f, 3.98678780e-01f, -8.70532244e-02f, 8.20545712e-04f, -2.83010944e-04f, -4.03163992e-02f, 7.87000135e-02f, -1.30424291e-01f, -2.18230292e-01f, 3.38621110e-01f, -1.05293952e-02f},
  {3.98291238e-02f, 1.60520986e-01f, -1.92872599e-01f, 1.88057050e-01f, -2.52707512e-03f, -1.72198024e-02f, 1.19652815e-01f, -1.56473786e-01f, 3.40557843e-01f, -1.05805263e-01f, 1.80848882e-01f, -4.47694287e-02f, -3.72615397e-01f, -1.53196126e-01f, 9.01508406e-02f, 4.96014915e-02f, -1.72598794e-01f, 1.64672136e-01f, 1.43875116e-02f, 2.03411147e-01f, 1.01436704e-01f, -1.10167153e-01f, 7.40413517e-02f, -2.70805284e-02f, -1.07274074e-02f, 7.46318996e-02f, -8.34541619e-02f, 5.40652238e-02f, 6.73570260e-02f, -3.28599483e-01f, -6.96500938e-04f, 2.08363935e-01f, 5.44085465e-02f, 3.60709578e-02f, 1.85057431e-01f, -8.96470714e-03f, -1.53539674e-02f, -1.09596305e-01f, 2.23526627e-01f, -1.17091767e-01f, -3.31995368e-01f, -1.14200652e-01f, -3.06116968e-01f, -1.99437290e-01f, -2.85496384e-01f, -5.39600588e-02f, -3.44155163e-01f, 1.36576742e-01f, 1.62337124e-02f, -1.68917239e-01f, 1.50755048e-02f, 1.61695614e-01f, 2.96532989e-01f, -1.13891274e-01f, -3.81930798e-01f, -2.15915456e-01f, 2.29394853e-01f, 8.46724957e-02f, -7.35391080e-02f, -3.94336879e-02f, -3.13445300e-01f, -1.70905605e-01f, -4.02576983e-01f, 3.42619233e-02f},
  {3.64313692e-01f, 1.97786584e-01f, -9.38195642e-03f, -1.69397205e-01f, -1.72986701e-01f, -8.87642354e-02f, -1.35160089e-01f, 1.47718981e-01f, -1.20978378e-01f, -1.83359832e-01f, -1.28032625e-01f, -2.38466069e-01f, 7.82913938e-02f, 9.03184563e-02f, -3.66831958e-01f, -1.12608299e-01f, 4.97364625e-02f, -6.71255887e-02f, 3.77351254e-01f, 3.24122101e-01f, 1.82802916e-01f, 1.00810565e-01f, -8.30619112e-02f, 1.09318562e-01f, 1.36046112e-01f, -7.03193843e-02f, -1.67854816e-01f, -1.28027629e-02f, -2.79636569e-02f, -5.84292635e-02f, 2.98106253e-01f, 1.80996150e-01f, 4.12342221e-01f, 1.94388926e-01f, -5.48302457e-02f, -1.74280062e-01f, -7.75365308e-02f, -3.89657505e-02f, -1.55022472e-01f, -3.79784852e-02f, -2.71359116e-01f, 2.29999676e-01f, 4.63306755e-02f, 3.35009873e-01f, -3.48152190e-01f, 2.37660110e-02f, 8.28680396e-02f, 3.46570238e-02f, 1.06797785e-01f, 3.33779663e-01f, -1.86758056e-01f, 6.34476915e-02f, -1.95268579e-02f, 1.86757036e-02f, -2.74534166e-01f, 5.86394407e-02f, 2.97408700e-01f, -2.65793502e-02f, -1.21119827e-01f, -3.26240510e-02f, 1.62452050e-02f, -9.37671140e-02f, 6.14746027e-02f, -3.17307040e-02f},
  {-9.17055234e-02f, 1.71168029e-01f, 3.92223634e-02f, 1.81967780e-01f, -3.61543596e-02f, 1.81427479e-01f, 1.12818271e-01f, -1.66924834e-01f, 4.24448662e-02f, 9.81737301e-03f, -1.28387779e-01f, -3.42830420e-01f, 9.79854837e-02f, 2.80280977e-01f, -6.23171702e-02f, -3.99965614e-01f, 5.42632416e-02f, 1.07009538e-01f, -1.61467791e-01f, 1.15680069e-01f, -7.71782100e-02f, 2.55351607e-02f, -1.03064910e-01f, -2.10202634e-01f, -9.64137316e-02f, -3.06516349e-01f, -8.69851261e-02f, 1.81764215e-01f, -1.12464819e-02f, 2.61547804e-01f, 4.74997871e-02f, -2.16718931e-02f, -1.10241957e-01f, 6.28686845e-02f, -1.07898731e-02f, -1.75051042e-03f, -1.42920632e-02f, -1.29131705e-01f, 1.15681618e-01f, -6.89535439e-02f, -7.78861418e-02f, 1.56654954e-01f, -1.24421185e-02f, -2.46305034e-01f, -2.64540523e-01f, -7.18465596e-02f, -2.03020409e-01f, 1.49023741e-01f, -4.61556047e-01f, -1.04435563e-01f, 2.07816414e-03f, -4.40484703e-01f, 6.54071495e-02f, -3.07266623e-01f, 6.29248098e-02f, 7.67430058e-03f, 1.09159974e-02f, -2.53885444e-02f, 1.38496965e-01f, 7.37096146e-02f, 6.37074932e-02f, -8.17595273e-02f, -4.51532006e-02f, 4.52043526e-02f},
  {2.25011244e-01f, 1.95193022e-01f, 1.55912191e-01f, -1.41241476e-01f, 4.18800712e-02f, 5.22498608e-01f, 5.92251830e-02f, 1.65743962e-01f, -1.97530419e-01f, 2.48365104e-01f, 2.93623120e-01f, 1.55902999e-02f, -8.04775804e-02f, -2.17907488e-01f, -1.13718860e-01f, -2.72165984e-01f, -1.73068568e-01f, 1.44134313e-01f, -1.56649739e-01f, -7.78080821e-02f, -2.30085058e-03f, 3.43906358e-02f, 8.60742554e-02f, -1.31621584e-01f, -8.87691975e-02f, -6.55624717e-02f, -1.22184344e-01f, 7.44946077e-02f, -3.39650780e-01f, 1.45768538e-01f, 5.35590649e-02f, 6.79299608e-02f, -1.71443984e-01f, -1.97437093e-01f, 2.07043216e-01f, -1.19901029e-02f, -2.06029732e-02f, -3.61593932e-01f, 5.14452830e-02f, -4.99234237e-02f, 3.68356556e-02f, -1.11870028e-01f, 8.44590962e-02f, 2.93554932e-01f, 1.74747258e-01f, -1.87950447e-01f, -1.00444825e-02f, 1.09958634e-01f, 2.16903072e-02f, 3.72459441e-02f, 1.14067152e-01f, 1.90144196e-01f, -2.60978073e-01f, -3.22085619e-01f, 5.86445592e-02f, 4.92708474e-01f, 1.52223468e-01f, -1.14150532e-01f, 7.24064931e-02f, -1.47486806e-01f, -1.00975566e-01f, -1.38326928e-01f, -1.75913259e-01f, 1.46691382e-01f},
  {3.40865254e-02f, -9.26733166e-02f, 3.60811502e-02f, -1.35122225e-01f, -2.05019236e-01f, -2.47643724e-01f, -1.02416880e-01f, -1.02721684e-01f, -1.29744187e-01f, -9.95004922e-02f, -1.48519844e-01f, 1.15530483e-01f, -4.00950424e-02f, -1.68482736e-01f, 1.98695049e-01f, -2.40225986e-01f, -1.07752122e-01f, 4.10754889e-01f, -1.04917184e-01f, 7.28552714e-02f, -6.66978396e-03f, 1.43344149e-01f, 1.13015287e-01f, 3.20620425e-02f, -3.49282742e-01f, -2.68515646e-02f, -3.80917662e-03f, 1.80097342e-01f, -1.07350454e-01f, -1.13511398e-01f, 4.12854068e-02f, 6.34789988e-02f, 3.26873809e-01f, 1.31268442e-01f, 9.74213630e-02f, 3.80308568e-01f, -6.28460199e-02f, -1.19853944e-01f, -7.48764798e-02f, 1.96801946e-01f, 2.46323347e-01f, -1.17629081e-01f, 1.10926591e-01f, -1.08187027e-01f, -1.89949065e-01f, -9.36225504e-02f, -2.80244321e-01f, -1.23315252e-01f, -1.63461417e-02f, 9.45475250e-02f, 1.15045965e-01f, 1.93879366e-01f, 1.12233475e-01f, -1.28363565e-01f, 2.74754852e-01f, -4.28042933e-02f, -9.66943204e-02f, 2.32984051e-02f, 1.58596903e-01f, -5.49237609e-01f, 4.07400489e-01f, -5.06769642e-02f, 1.69487149e-01f, 2.79275954e-01f}
};
const float L1_B[64] = {-2.03602389e-02f, 2.16408470e-03f, 2.17080321e-02f, -1.94384549e-02f, 1.78400353e-02f, 1.84502974e-02f, 2.45251860e-02f, -3.03516276e-02f, 1.56165324e-02f, 1.35966493e-02f, -3.30182724e-02f, 1.99935641e-02f, 7.03023188e-03f, 4.40253830e-03f, -8.93076211e-02f, -8.31239447e-02f, 8.32846481e-03f, 1.70904715e-02f, -1.61851961e-02f, -2.44143028e-02f, -4.62327600e-02f, 2.60636639e-02f, -1.04409992e-03f, 2.83884089e-02f, -2.14439463e-02f, 1.66617229e-03f, -1.50767658e-02f, 1.46907084e-02f, 3.42574418e-02f, 6.06890721e-03f, 4.27742712e-02f, 6.34920895e-02f, -2.39523783e-01f, -1.46152452e-02f, 3.02635645e-03f, 2.69846548e-03f, 1.55528903e-03f, -1.26837641e-02f, -1.22030806e-02f, -3.12007517e-02f, 4.22515394e-03f, -1.16198160e-01f, 3.81373465e-02f, 3.80688231e-03f, -3.47381048e-02f, 2.67482959e-02f, -3.03514674e-03f, 7.59244256e-04f, -1.08747616e-01f, -9.68221873e-02f, -1.15461804e-01f, -4.37839553e-02f, 3.98811745e-03f, -7.23095518e-03f, -3.88764255e-02f, -2.50634588e-02f, -1.35403782e-01f, -3.41770165e-02f, -4.78324667e-03f, 8.00606795e-03f, -1.92092359e-03f, 2.14309581e-02f, 2.58919578e-02f, 1.52534302e-02f};

const float L2_W[2][64] = {
  {-1.06107700e-03f, 5.14199818e-03f, -9.52288415e-03f, -1.35808531e-03f, 3.03990897e-02f, 1.24882665e-02f, -1.82583695e-03f, 5.81576601e-02f, -1.53907191e-03f, -1.14560837e-03f, 5.07260375e-02f, -2.18801288e-04f, -1.41676106e-02f, -1.93794053e-02f, 6.18438423e-02f, 2.17896458e-02f, -2.02625734e-03f, -1.69299333e-03f, -3.16054397e-03f, 9.40380618e-03f, -4.84757237e-02f, 2.66441815e-02f, -1.23582850e-03f, -4.33939062e-02f, -9.40961856e-03f, 1.25080219e-03f, 8.76329083e-04f, 5.64892869e-03f, -3.10381944e-03f, -3.26839648e-03f, 4.61072586e-02f, -4.31408286e-02f, -1.30130857e-01f, 1.50083238e-02f, -8.81850999e-03f, 6.19636010e-03f, 9.45174787e-03f, 7.25479040e-04f, 9.79680917e-04f, -1.85433321e-03f, 1.88813005e-02f, -5.45348078e-02f, 1.71359105e-03f, 2.15786253e-03f, 4.55932040e-03f, 1.13899447e-03f, 2.15884624e-03f, -5.22728032e-03f, 1.38735116e-01f, -7.37354085e-02f, 7.65016824e-02f, 4.57794219e-02f, 5.29551581e-02f, -2.69507128e-03f, -3.12236845e-02f, -1.22848985e-04f, 9.62496772e-02f, 6.64335748e-05f, 5.01110451e-03f, 1.80415586e-02f, -7.58378021e-03f, -2.05580681e-03f, -2.43983697e-02f, -2.08282936e-02f},
  {6.22234307e-02f, 1.42137310e-03f, 1.59894396e-02f, -5.06943790e-03f, 2.52561942e-02f, -2.79453141e-03f, -2.30827311e-04f, -3.38120721e-02f, 5.74025325e-03f, 4.78934543e-03f, 1.53740859e-02f, -3.45600327e-03f, 8.87135696e-03f, -1.07666917e-01f, -1.44186795e-01f, 1.31977290e-01f, -6.92217704e-03f, -3.59122321e-04f, 3.64231900e-03f, -5.02763875e-03f, 7.11166859e-02f, 7.16016954e-03f, 1.13345473e-03f, 2.18458436e-02f, 5.23548275e-02f, 2.76556285e-03f, 1.17144939e-02f, -7.77433114e-03f, 3.37279681e-03f, 3.13656521e-03f, 4.45567537e-03f, -9.46698524e-03f, -1.30084306e-01f, -1.01256091e-03f, 4.89962567e-03f, 2.24252534e-03f, -6.56952057e-03f, -3.03443114e-04f, 2.39367888e-04f, -1.98936020e-03f, 6.97110593e-02f, -7.21023232e-02f, -3.44736082e-03f, -3.69446073e-03f, -3.12475138e-03f, 8.50737793e-04f, -1.91081350e-03f, 7.48592801e-03f, -1.21776775e-01f, 8.50619823e-02f, 1.16966821e-01f, 8.21336135e-02f, -2.50032302e-02f, 6.06131786e-03f, -2.99517140e-02f, 1.70940976e-03f, -1.32821957e-02f, 6.87026326e-03f, 1.24958530e-03f, -6.94259163e-03f, -1.37368655e-02f, 1.73138769e-03f, 2.66552102e-02f, 1.28126293e-02f}
};
const float L2_B[2] = {-1.84754934e-02f, -5.40538039e-03f};
